0.24228,-0.6715,-1.0451,0.96548,-0.21493,1.4131,-0.92326,-0.58576
0.3933,-0.86283,0.14316,1.526,0.5185,-0.76023,0.35333,-0.70971
0.066892,1.5409,0.42918,-0.41301
0.24693,-0.67223,-1.0451,0.96511,-0.21131,1.4117,-0.92057,-0.57921
0.39369,-0.84659,0.14015,1.5217,0.50928,-0.76052,0.35671,-0.72162
0.030752,1.4692,0.35031,-0.46144
0.25198,-0.67372,-1.0452,0.96458,-0.20845,1.4104,-0.9155,-0.5738
0.39391,-0.82709,0.1394,1.5184,0.50319,-0.76068,0.35892,-0.73356
-0.011421,1.3945,0.27811,-0.49575
0.25767,-0.67623,-1.0453,0.96373,-0.20641,1.4093,-0.90819,-0.5693
0.3937,-0.80401,0.13942,1.5155,0.50098,-0.76081,0.36096,-0.74503
-0.062792,1.3479,0.21214,-0.52178
0.26507,-0.68064,-1.0453,0.96251,-0.20517,1.4082,-0.89596,-0.56575
0.39289,-0.77208,0.14136,1.513,0.50395,-0.76098,0.36208,-0.7585
-0.13122,1.3202,0.17433,-0.54526
0.27464,-0.68658,-1.0454,0.96065,-0.20436,1.407,-0.87865,-0.5624
0.39172,-0.73046,0.14483,1.5108,0.51089,-0.76104,0.36227,-0.77561
-0.22272,1.3071,0.13415,-0.55118
0.28865,-0.69562,-1.0455,0.95795,-0.2035,1.4056,-0.8497,-0.5588
0.38979,-0.66897,0.15142,1.5089,0.52504,-0.76116,0.36168,-0.79892
-0.34912,1.301,0.12783,-0.56123
0.29795,-0.70139,-1.0456,0.95623,-0.2024,1.4048,-0.8293,-0.55572
0.38857,-0.62938,0.15543,1.5077,0.53401,-0.76121,0.36222,-0.81342
-0.43266,1.2953,0.096286,-0.5655
0.30347,-0.70564,-1.0456,0.95513,-0.20177,1.4044,-0.81657,-0.55414
0.38756,-0.60651,0.15797,1.5071,0.5409,-0.76132,0.36294,-0.82147
-0.47987,1.2922,0.087495,-0.57402
0.30507,-0.70762,-1.0456,0.95474,-0.20152,1.4042,-0.81309,-0.55359
0.38708,-0.6004,0.15882,1.5069,0.54278,-0.76135,0.36353,-0.82364
-0.49088,1.2804,0.068917,-0.57585
0.30839,-0.71083,-1.0456,0.95404,-0.20152,1.404,-0.80526,-0.55304
0.38623,-0.58704,0.16035,1.5066,0.54853,-0.76144,0.36397,-0.8284
-0.52032,1.2875,0.068555,-0.58014
0.30993,-0.71297,-1.0457,0.95365,-0.20167,1.4039,-0.80157,-0.553
0.38571,-0.58106,0.16134,1.5065,0.55181,-0.76149,0.36415,-0.83055
-0.53199,1.286,0.066692,-0.58347
0.31055,-0.71451,-1.0457,0.95342,-0.20173,1.4039,-0.8004,-0.55288
0.38516,-0.57909,0.16109,1.5062,0.55347,-0.76159,0.3651,-0.83069
-0.5348,1.2921,0.056163,-0.58989
0.31268,-0.71746,-1.0457,0.95293,-0.20222,1.4038,-0.79483,-0.55323
0.38456,-0.57065,0.16327,1.5065,0.55868,-0.76161,0.36439,-0.83457
-0.55092,1.2786,0.073324,-0.58901
0.31289,-0.71859,-1.0457,0.95276,-0.20238,1.4038,-0.79455,-0.5533
0.38418,-0.57025,0.16319,1.5064,0.55967,-0.76167,0.36495,-0.83437
-0.55008,1.2801,0.064525,-0.59209
0.3137,-0.72015,-1.0457,0.95248,-0.20256,1.4038,-0.79292,-0.55323
0.38361,-0.56748,0.16294,1.5061,0.56204,-0.76176,0.36584,-0.83489
-0.557,1.2948,0.056424,-0.59616
0.31444,-0.72198,-1.0457,0.95231,-0.20292,1.4038,-0.79091,-0.5536
0.38321,-0.56483,0.16416,1.5064,0.56455,-0.76174,0.36547,-0.8366
-0.56148,1.2809,0.058162,-0.59007
0.31525,-0.72372,-1.0457,0.95203,-0.20341,1.4038,-0.78891,-0.55395
0.38267,-0.56188,0.16449,1.5063,0.56761,-0.76182,0.36565,-0.83747
-0.5672,1.2883,0.060954,-0.59461
0.31572,-0.72521,-1.0457,0.9519,-0.2037,1.4038,-0.7878,-0.55413
0.38216,-0.56034,0.16453,1.5062,0.56973,-0.76188,0.36617,-0.83786
-0.57041,1.2938,0.057302,-0.5964
0.31636,-0.72695,-1.0457,0.95163,-0.20421,1.4038,-0.78599,-0.55466
0.38181,-0.55808,0.1658,1.5065,0.5723,-0.7619,0.36561,-0.83918
-0.57131,1.2784,0.070932,-0.59782
0.31668,-0.72833,-1.0457,0.95143,-0.20457,1.4038,-0.78539,-0.55489
0.38131,-0.55727,0.16554,1.5063,0.5742,-0.76198,0.3662,-0.83908
-0.57277,1.2883,0.064479,-0.60137
0.31696,-0.72979,-1.0457,0.95128,-0.20503,1.4038,-0.7845,-0.55532
0.38096,-0.55647,0.16634,1.5066,0.57597,-0.76199,0.36597,-0.8398
-0.5721,1.2765,0.067432,-0.59913
0.31721,-0.73128,-1.0457,0.95113,-0.2055,1.4039,-0.78391,-0.55566
0.38044,-0.55588,0.16622,1.5064,0.57803,-0.76205,0.36642,-0.83985
-0.57336,1.2835,0.062161,-0.60053
0.31744,-0.73269,-1.0457,0.95096,-0.20589,1.4039,-0.78349,-0.55589
0.37993,-0.55544,0.16598,1.5063,0.57983,-0.76211,0.36701,-0.83979
-0.57475,1.2921,0.053339,-0.60064
0.31697,-0.73354,-1.0457,0.95092,-0.20622,1.4039,-0.78472,-0.5561
0.37943,-0.5577,0.16502,1.506,0.58029,-0.76222,0.36803,-0.83821
-0.56847,1.3019,0.04354,-0.60724
0.3174,-0.73555,-1.0457,0.95069,-0.20688,1.404,-0.78337,-0.55677
0.37895,-0.5564,0.16593,1.5062,0.5831,-0.76225,0.36767,-0.8392
-0.56811,1.2907,0.053995,-0.60887
0.31749,-0.73694,-1.0457,0.95052,-0.20732,1.404,-0.78312,-0.55711
0.37847,-0.55646,0.16607,1.5062,0.58465,-0.76229,0.36799,-0.83927
-0.56705,1.2885,0.049457,-0.60724
0.31764,-0.73848,-1.0457,0.95033,-0.20791,1.404,-0.78253,-0.55771
0.37809,-0.55622,0.16666,1.5064,0.58672,-0.76231,0.36775,-0.83964
-0.56509,1.2817,0.055405,-0.60864
0.31971,-0.74149,-1.0457,0.94985,-0.20866,1.404,-0.77762,-0.55814
0.37735,-0.54862,0.16795,1.5065,0.59283,-0.76235,0.36758,-0.84304
-0.58429,1.292,0.064255,-0.60513
0.31991,-0.74299,-1.0457,0.94975,-0.20922,1.4041,-0.77685,-0.55863
0.37699,-0.54811,0.1686,1.5067,0.59475,-0.76236,0.36739,-0.84365
-0.58412,1.2841,0.065674,-0.60275
0.32058,-0.74502,-1.0457,0.94952,-0.21,1.4041,-0.77494,-0.55924
0.37648,-0.54584,0.16943,1.5069,0.59818,-0.76242,0.36717,-0.8448
-0.58697,1.28,0.078483,-0.60622
0.32098,-0.74646,-1.0457,0.94934,-0.21041,1.4041,-0.77401,-0.55951
0.37605,-0.54469,0.16975,1.507,0.60016,-0.76244,0.36737,-0.8454
-0.58993,1.2808,0.07334,-0.60279
0.32078,-0.74749,-1.0457,0.94926,-0.21076,1.4042,-0.77454,-0.55975
0.37562,-0.54586,0.16935,1.5068,0.601,-0.76249,0.36797,-0.84478
-0.58781,1.2866,0.061094,-0.60185
0.32019,-0.74826,-1.0457,0.94921,-0.21117,1.4042,-0.7758,-0.56009
0.37525,-0.54846,0.16899,1.5068,0.60115,-0.76254,0.36845,-0.84361
-0.58037,1.2855,0.054548,-0.6042
0.32011,-0.74981,-1.0457,0.94905,-0.21181,1.4043,-0.77564,-0.56072
0.37483,-0.54911,0.1694,1.5069,0.60303,-0.76259,0.36834,-0.84364
-0.57605,1.2776,0.062195,-0.6074
0.32053,-0.75152,-1.0457,0.94887,-0.21241,1.4043,-0.77461,-0.56111
0.37419,-0.54793,0.16917,1.5068,0.60585,-0.76266,0.36888,-0.84397
-0.58039,1.2905,0.055055,-0.60753
0.32115,-0.75346,-1.0457,0.94866,-0.21303,1.4044,-0.77303,-0.56154
0.37366,-0.546,0.16974,1.5069,0.60882,-0.76268,0.36895,-0.84513
-0.58575,1.2915,0.05218,-0.60213
0.32044,-0.75418,-1.0457,0.94864,-0.21343,1.4044,-0.77442,-0.56197
0.37332,-0.54899,0.16955,1.507,0.60881,-0.76271,0.36921,-0.84406
-0.57768,1.2853,0.045254,-0.60141
0.32126,-0.75658,-1.0457,0.94839,-0.21433,1.4045,-0.7722,-0.56266
0.37272,-0.5463,0.17024,1.5071,0.61303,-0.76276,0.36906,-0.8455
-0.58323,1.2875,0.055329,-0.60312
0.32205,-0.75871,-1.0457,0.94805,-0.21506,1.4045,-0.77023,-0.56314
0.3721,-0.54376,0.17072,1.5071,0.61673,-0.76284,0.36924,-0.84659
-0.58782,1.2906,0.063854,-0.60706
0.3227,-0.76063,-1.0457,0.9478,-0.21571,1.4046,-0.76852,-0.56359
0.37152,-0.54165,0.17115,1.5071,0.62002,-0.76292,0.36943,-0.84746
-0.59132,1.2928,0.071523,-0.61157
0.32137,-0.76076,-1.0457,0.94793,-0.21605,1.4046,-0.77115,-0.56392
0.3713,-0.54676,0.17068,1.5071,0.61832,-0.76294,0.36979,-0.84545
-0.57787,1.2825,0.060272,-0.61295
0.3208,-0.76179,-1.0457,0.94782,-0.21658,1.4047,-0.77231,-0.56431
0.37079,-0.54935,0.16985,1.5068,0.61909,-0.76302,0.37057,-0.84409
-0.57257,1.2924,0.048796,-0.61649
0.32126,-0.76372,-1.0457,0.94752,-0.21723,1.4048,-0.77119,-0.56465
0.37008,-0.54814,0.16971,1.5067,0.62209,-0.76311,0.37131,-0.84439
-0.57562,1.3029,0.047129,-0.61991
0.32184,-0.766,-1.0457,0.94728,-0.21817,1.4048,-0.76909,-0.56554
0.3697,-0.5462,0.1717,1.5073,0.62533,-0.76308,0.37012,-0.84658
-0.57637,1.2743,0.065744,-0.61579
0.32204,-0.76776,-1.0457,0.94714,-0.21885,1.4048,-0.76829,-0.56602
0.36915,-0.54582,0.17188,1.5074,0.62777,-0.7631,0.37032,-0.84711
-0.57907,1.2777,0.058086,-0.61097
0.32218,-0.76946,-1.0457,0.94695,-0.21963,1.4049,-0.76755,-0.56664
0.36862,-0.54562,0.1721,1.5074,0.63041,-0.76316,0.3704,-0.84739
-0.57869,1.2781,0.0628,-0.61396
0.32281,-0.77163,-1.0457,0.94671,-0.22047,1.405,-0.76578,-0.56722
0.36801,-0.5437,0.1726,1.5075,0.63401,-0.76321,0.37046,-0.84848
-0.58311,1.2801,0.066025,-0.61371
0.32204,-0.77221,-1.0457,0.94669,-0.2207,1.405,-0.76739,-0.56726
0.36747,-0.54688,0.17157,1.5072,0.63358,-0.76326,0.37166,-0.84694
-0.57868,1.2905,0.043392,-0.61126
0.32168,-0.77375,-1.0457,0.94661,-0.22154,1.4051,-0.7674,-0.56802
0.36702,-0.54846,0.17199,1.5074,0.6353,-0.7633,0.37145,-0.84693
-0.5736,1.2801,0.049051,-0.61223
0.32229,-0.77598,-1.0457,0.94629,-0.22242,1.4052,-0.76594,-0.56847
0.36621,-0.54682,0.1715,1.5071,0.63926,-0.76341,0.37233,-0.84726
-0.57888,1.3003,0.045546,-0.61757
0.32166,-0.77698,-1.0456,0.94626,-0.22303,1.4052,-0.76678,-0.56888
0.36569,-0.54938,0.171,1.507,0.63995,-0.76348,0.37296,-0.84619
-0.57374,1.3028,0.036705,-0.61901
0.32359,-0.78057,-1.0456,0.94577,-0.22429,1.4053,-0.76179,-0.56992
0.36513,-0.54262,0.17383,1.5077,0.64648,-0.76345,0.37134,-0.85062
-0.58511,1.2768,0.06739,-0.61538
0.32421,-0.78276,-1.0457,0.94547,-0.22524,1.4054,-0.75984,-0.57067
0.36463,-0.54068,0.17493,1.508,0.65017,-0.76347,0.37088,-0.85203
-0.58766,1.2683,0.079869,-0.61605
0.32413,-0.78413,-1.0456,0.94526,-0.22579,1.4055,-0.75994,-0.57082
0.36394,-0.54145,0.17397,1.5076,0.65187,-0.76359,0.3721,-0.85128
-0.58783,1.2861,0.067788,-0.6211
0.32349,-0.78502,-1.0456,0.94517,-0.22641,1.4055,-0.76086,-0.57117
0.3634,-0.54408,0.17311,1.5073,0.65265,-0.7637,0.37299,-0.84984
-0.58198,1.2957,0.061812,-0.62944
0.3231,-0.78639,-1.0456,0.94509,-0.22719,1.4056,-0.7607,-0.57181
0.36297,-0.54555,0.17377,1.5076,0.65386,-0.76371,0.37271,-0.85003
-0.57737,1.2793,0.065128,-0.62792
0.32326,-0.78809,-1.0456,0.9449,-0.22789,1.4057,-0.75989,-0.57224
0.36223,-0.54528,0.17354,1.5075,0.65641,-0.76378,0.37334,-0.85016
-0.57952,1.287,0.057899,-0.62792
0.3236,-0.78985,-1.0456,0.94473,-0.22866,1.4057,-0.75848,-0.57287
0.36184,-0.54417,0.17474,1.5079,0.65877,-0.76372,0.37271,-0.85159
-0.5831,1.2753,0.054758,-0.61735
0.32447,-0.79258,-1.0456,0.94441,-0.22986,1.4058,-0.75587,-0.57377
0.36127,-0.54145,0.17612,1.5083,0.66345,-0.76373,0.37205,-0.85366
-0.58793,1.2652,0.069194,-0.61489
0.32447,-0.79438,-1.0456,0.94426,-0.23077,1.4059,-0.75501,-0.5745
0.36072,-0.54167,0.17672,1.5085,0.66598,-0.76375,0.37185,-0.85426
-0.58746,1.2579,0.071823,-0.61184
0.32491,-0.79609,-1.0456,0.944,-0.23144,1.406,-0.75405,-0.57476
0.35997,-0.54062,0.17608,1.5082,0.66894,-0.76384,0.37278,-0.85445
-0.59317,1.2791,0.058763,-0.61242
0.3242,-0.79701,-1.0456,0.94397,-0.23202,1.4061,-0.75494,-0.57506
0.35935,-0.54343,0.17516,1.5079,0.66967,-0.76395,0.37383,-0.8531
-0.58788,1.2884,0.0513,-0.61823
0.3245,-0.79897,-1.0456,0.94363,-0.23281,1.4062,-0.75382,-0.57553
0.35865,-0.54281,0.17533,1.5079,0.67262,-0.76403,0.37429,-0.85356
-0.58882,1.2897,0.054845,-0.62128
0.32465,-0.80099,-1.0456,0.9435,-0.23389,1.4062,-0.75244,-0.57633
0.35812,-0.54246,0.17612,1.5082,0.67568,-0.76406,0.37393,-0.85444
-0.58824,1.2797,0.065123,-0.62285
0.32387,-0.80177,-1.0456,0.94342,-0.23456,1.4063,-0.753,-0.57691
0.3578,-0.54517,0.17657,1.5084,0.67585,-0.76405,0.37367,-0.85405
-0.58258,1.2678,0.060825,-0.61893
0.32465,-0.80417,-1.0456,0.94313,-0.23549,1.4064,-0.75085,-0.57744
0.3569,-0.54285,0.17668,1.5084,0.68018,-0.76414,0.37421,-0.85517
-0.58855,1.2759,0.062434,-0.62034
0.32495,-0.80639,-1.0456,0.94281,-0.23667,1.4066,-0.7494,-0.57818
0.35626,-0.54224,0.17703,1.5084,0.68382,-0.76422,0.37427,-0.85579
-0.58901,1.2767,0.070023,-0.62525
0.32526,-0.80823,-1.0456,0.94251,-0.2376,1.4067,-0.74803,-0.57876
0.35566,-0.54142,0.17739,1.5084,0.68687,-0.76429,0.3744,-0.85637
-0.58969,1.2754,0.076781,-0.62971
0.32501,-0.80952,-1.0456,0.94242,-0.23845,1.4068,-0.74752,-0.57931
0.35523,-0.54234,0.17781,1.5086,0.68833,-0.7643,0.37429,-0.85654
-0.58836,1.2694,0.073526,-0.6274
0.3237,-0.8097,-1.0456,0.94242,-0.23866,1.4068,-0.74957,-0.57922
0.35454,-0.547,0.17609,1.5081,0.68704,-0.7644,0.37602,-0.85423
-0.58285,1.2877,0.044797,-0.62765
0.3232,-0.81092,-1.0456,0.9424,-0.23944,1.4068,-0.74923,-0.57995
0.35417,-0.54861,0.17711,1.5086,0.68803,-0.76435,0.37537,-0.85475
-0.57996,1.2692,0.044904,-0.61939
0.32332,-0.81297,-1.0456,0.9422,-0.24046,1.4069,-0.7481,-0.58061
0.35339,-0.54859,0.17703,1.5085,0.69133,-0.76442,0.37578,-0.8551
-0.5814,1.2767,0.04356,-0.62041
0.32249,-0.81413,-1.0456,0.94204,-0.24132,1.407,-0.74826,-0.58141
0.35294,-0.55145,0.1777,1.5089,0.69225,-0.76443,0.37539,-0.85498
-0.57429,1.2596,0.050056,-0.6192
0.32278,-0.81647,-1.0456,0.94176,-0.24254,1.4072,-0.7467,-0.58218
0.35204,-0.551,0.17736,1.5086,0.6965,-0.76454,0.37593,-0.85536
-0.57603,1.2724,0.052005,-0.62585
0.32356,-0.81898,-1.0456,0.94132,-0.24361,1.4073,-0.74448,-0.58269
0.35125,-0.54874,0.17775,1.5086,0.7006,-0.7646,0.3763,-0.8566
-0.58176,1.2771,0.051823,-0.62528
0.32353,-0.82071,-1.0456,0.94114,-0.24454,1.4074,-0.74339,-0.58326
0.35052,-0.54899,0.17786,1.5087,0.70311,-0.76465,0.37659,-0.85692
-0.58263,1.2783,0.047885,-0.62397
0.32445,-0.82339,-1.0456,0.9408,-0.24582,1.4075,-0.74059,-0.58397
0.34977,-0.54617,0.17889,1.5089,0.70769,-0.76469,0.37638,-0.8588
-0.58808,1.2722,0.057265,-0.62276
0.32436,-0.82537,-1.0456,0.94049,-0.24696,1.4076,-0.73947,-0.58469
0.34907,-0.5468,0.17916,1.509,0.71058,-0.76476,0.37654,-0.85911
-0.58606,1.2693,0.063482,-0.62689
0.32415,-0.82676,-1.0455,0.94027,-0.24776,1.4077,-0.73908,-0.58498
0.34839,-0.54782,0.17859,1.5088,0.71231,-0.76484,0.37743,-0.85866
-0.58571,1.2797,0.054098,-0.62931
0.32528,-0.82947,-1.0455,0.93988,-0.24901,1.4079,-0.73604,-0.58568
0.34756,-0.54438,0.17927,1.5088,0.71753,-0.76492,0.37746,-0.86044
-0.59212,1.2811,0.06418,-0.63295
0.32395,-0.82962,-1.0455,0.94008,-0.24951,1.4079,-0.73692,-0.58611
0.34717,-0.54845,0.17917,1.5089,0.71648,-0.76493,0.37756,-0.85935
-0.58546,1.2737,0.053285,-0.62976
0.32362,-0.83088,-1.0455,0.93987,-0.2503,1.408,-0.73639,-0.58656
0.34651,-0.54962,0.17927,1.509,0.71799,-0.76497,0.37791,-0.85929
-0.58392,1.272,0.050188,-0.62908
0.32393,-0.83287,-1.0455,0.93963,-0.25128,1.4081,-0.73457,-0.58717
0.34573,-0.5486,0.17995,1.5093,0.72099,-0.76499,0.37791,-0.86043
-0.58739,1.267,0.049288,-0.62355
0.32412,-0.83492,-1.0455,0.93939,-0.25244,1.4082,-0.7331,-0.58777
0.34499,-0.5483,0.18014,1.5093,0.72411,-0.76503,0.37817,-0.86104
-0.58974,1.2705,0.046037,-0.62132
0.3247,-0.83741,-1.0455,0.93908,-0.2537,1.4084,-0.73075,-0.58857
0.34406,-0.54678,0.18054,1.5094,0.7287,-0.76513,0.37832,-0.86224
-0.59194,1.2703,0.057224,-0.62628
0.32446,-0.83891,-1.0455,0.93896,-0.25476,1.4085,-0.72934,-0.58944
0.3436,-0.54729,0.182,1.51,0.73052,-0.76509,0.37734,-0.86339
-0.59082,1.2481,0.064134,-0.61872
0.32205,-0.83819,-1.0455,0.93906,-0.25499,1.4085,-0.73217,-0.58979
0.3432,-0.55508,0.18088,1.5098,0.72778,-0.76517,0.37813,-0.86049
-0.57565,1.248,0.054248,-0.62445
0.32236,-0.8407,-1.0455,0.93864,-0.25634,1.4087,-0.73037,-0.59047
0.34223,-0.55467,0.1807,1.5096,0.73195,-0.76529,0.37877,-0.86102
-0.57641,1.2559,0.058508,-0.63086
0.32393,-0.84355,-1.0455,0.93815,-0.25737,1.4088,-0.72728,-0.59058
0.34105,-0.55005,0.18025,1.5092,0.73714,-0.76538,0.38011,-0.86256
-0.59028,1.2819,0.041608,-0.62837
0.3239,-0.84515,-1.0455,0.9379,-0.25829,1.4089,-0.72619,-0.59104
0.34028,-0.55042,0.18009,1.5091,0.73965,-0.76547,0.3807,-0.86262
-0.58999,1.2871,0.040573,-0.63217
0.32324,-0.84605,-1.0455,0.93783,-0.25906,1.409,-0.72574,-0.59157
0.33968,-0.55242,0.18037,1.5093,0.74041,-0.7655,0.38075,-0.86248
-0.58619,1.2781,0.04042,-0.63155
0.32397,-0.84878,-1.0455,0.93746,-0.2605,1.4091,-0.72299,-0.59236
0.33882,-0.55047,0.18105,1.5095,0.74512,-0.76558,0.38071,-0.86399
-0.58907,1.2751,0.051643,-0.63509
0.32292,-0.84927,-1.0455,0.93745,-0.26106,1.4092,-0.72337,-0.59261
0.33817,-0.55378,0.18054,1.5094,0.74478,-0.76563,0.38149,-0.86288
-0.5845,1.2771,0.039299,-0.63409
0.32382,-0.8518,-1.0455,0.9371,-0.26244,1.4093,-0.72042,-0.59334
0.33734,-0.55107,0.1815,1.5096,0.74925,-0.76566,0.38125,-0.86472
-0.59005,1.2724,0.04605,-0.63232
0.32376,-0.85347,-1.0455,0.93691,-0.26348,1.4095,-0.71879,-0.59406
0.33664,-0.5512,0.18237,1.51,0.75155,-0.76567,0.38091,-0.86566
-0.59006,1.2603,0.050732,-0.62868
0.32277,-0.85388,-1.0454,0.93678,-0.26391,1.4095,-0.71913,-0.59437
0.33595,-0.55426,0.1821,1.51,0.75142,-0.76573,0.38153,-0.86481
-0.5851,1.259,0.044607,-0.62855
0.32457,-0.85771,-1.0454,0.93621,-0.26588,1.4097,-0.71462,-0.59545
0.33496,-0.54915,0.18335,1.5102,0.75884,-0.76579,0.38099,-0.8678
-0.59411,1.2571,0.061702,-0.63049
0.32485,-0.85967,-1.0454,0.93601,-0.26686,1.4098,-0.71329,-0.59566
0.33388,-0.5489,0.18225,1.5097,0.76203,-0.76593,0.38253,-0.86761
-0.59725,1.28,0.048875,-0.63542
0.32353,-0.85987,-1.0454,0.93605,-0.26749,1.4099,-0.71363,-0.5961
0.33342,-0.55279,0.18251,1.51,0.76104,-0.76595,0.38252,-0.86684
-0.58971,1.2669,0.0473,-0.63444
0.32301,-0.86091,-1.0454,0.93596,-0.26834,1.41,-0.71256,-0.59678
0.33283,-0.55416,0.18336,1.5104,0.76202,-0.76593,0.38206,-0.86734
-0.58788,1.2525,0.048337,-0.62858
0.32278,-0.86243,-1.0454,0.93566,-0.26925,1.4101,-0.71172,-0.59718
0.33189,-0.55529,0.18287,1.5102,0.76417,-0.76603,0.38297,-0.86712
-0.58714,1.2613,0.04231,-0.63057
0.32267,-0.86412,-1.0454,0.93537,-0.27037,1.4103,-0.71027,-0.59785
0.33104,-0.55596,0.18299,1.5103,0.76686,-0.7661,0.3832,-0.86747
-0.58619,1.2619,0.043767,-0.63241
0.3226,-0.86592,-1.0454,0.93521,-0.27162,1.4104,-0.70847,-0.59856
0.33025,-0.55641,0.18342,1.5104,0.76938,-0.76613,0.38316,-0.86811
-0.58591,1.2573,0.045209,-0.63083
0.32436,-0.86973,-1.0454,0.93453,-0.27349,1.4106,-0.70412,-0.5995
0.32913,-0.55167,0.18451,1.5106,0.77654,-0.76623,0.38298,-0.87086
-0.59281,1.2533,0.065239,-0.63598
0.32184,-0.86825,-1.0454,0.93463,-0.27314,1.4106,-0.70681,-0.59928
0.32866,-0.55903,0.18349,1.5106,0.77181,-0.76627,0.38419,-0.86805
-0.5811,1.2516,0.04447,-0.63399
0.32246,-0.87045,-1.0454,0.93435,-0.27434,1.4108,-0.70441,-0.59977
0.32768,-0.55727,0.18377,1.5106,0.77524,-0.76629,0.38456,-0.86917
-0.58794,1.2585,0.033884,-0.62714
0.32309,-0.87293,-1.0454,0.9341,-0.27578,1.4109,-0.70194,-0.60053
0.32657,-0.55603,0.18363,1.5105,0.77998,-0.76641,0.38504,-0.87007
-0.59025,1.2675,0.038128,-0.63273
0.32195,-0.873,-1.0454,0.93397,-0.27604,1.411,-0.70234,-0.60068
0.32593,-0.55939,0.18352,1.5106,0.77887,-0.76644,0.38567,-0.86912
-0.58518,1.2629,0.029704,-0.63008
0.32198,-0.87491,-1.0454,0.93374,-0.27732,1.4111,-0.70055,-0.6014
0.32506,-0.55981,0.18374,1.5107,0.78178,-0.7665,0.38582,-0.86965
-0.58465,1.2625,0.031556,-0.63088
0.32388,-0.87853,-1.0454,0.93327,-0.27923,1.4113,-0.69569,-0.60239
0.32413,-0.55413,0.18582,1.5113,0.78818,-0.76647,0.3847,-0.87331
-0.59562,1.2477,0.046319,-0.62326
0.32423,-0.8805,-1.0454,0.93293,-0.28049,1.4114,-0.69331,-0.60328
0.32337,-0.55343,0.18668,1.5116,0.79173,-0.76651,0.38417,-0.87465
-0.59563,1.2383,0.059351,-0.62494
0.3226,-0.88037,-1.0453,0.93296,-0.28081,1.4115,-0.69449,-0.60339
0.3225,-0.55895,0.18501,1.5111,0.79057,-0.76666,0.38579,-0.87237
-0.58654,1.2539,0.044028,-0.63296
0.32324,-0.88284,-1.0453,0.93261,-0.28208,1.4117,-0.69225,-0.60367
0.32114,-0.55776,0.18426,1.5107,0.7945,-0.76681,0.38732,-0.87273
-0.59025,1.2709,0.036048,-0.63694
0.32302,-0.88393,-1.0453,0.93247,-0.28276,1.4117,-0.6912,-0.60378
0.32012,-0.5586,0.18372,1.5106,0.79555,-0.76688,0.38851,-0.87236
-0.59178,1.2815,0.019647,-0.63405
0.32325,-0.88571,-1.0453,0.93223,-0.28394,1.4119,-0.68916,-0.60444
0.3193,-0.55835,0.18424,1.5108,0.79844,-0.76695,0.38845,-0.87325
-0.59045,1.2739,0.030597,-0.6387
0.32354,-0.88722,-1.0453,0.93198,-0.28494,1.412,-0.68661,-0.60518
0.31869,-0.55718,0.18605,1.5114,0.80041,-0.76692,0.38729,-0.8752
-0.59142,1.2471,0.045982,-0.63367
0.32428,-0.88966,-1.0453,0.93164,-0.2864,1.4121,-0.68388,-0.6058
0.31765,-0.55555,0.18638,1.5115,0.80446,-0.76699,0.38756,-0.87647
-0.59524,1.2496,0.047436,-0.63315
0.32278,-0.88997,-1.0453,0.93156,-0.28711,1.4123,-0.68439,-0.60616
0.31686,-0.56076,0.1856,1.5114,0.80366,-0.76708,0.38848,-0.87485
-0.58546,1.2518,0.041428,-0.6378
0.3231,-0.89158,-1.0453,0.93131,-0.28805,1.4124,-0.6824,-0.60662
0.31584,-0.56012,0.18568,1.5114,0.8063,-0.76714,0.38893,-0.87552
-0.58806,1.256,0.037219,-0.63697
0.32297,-0.89294,-1.0453,0.93107,-0.28901,1.4125,-0.68074,-0.6072
0.31498,-0.5609,0.18602,1.5115,0.80802,-0.76718,0.38898,-0.87598
-0.58734,1.2521,0.036497,-0.6351
0.32239,-0.89383,-1.0453,0.93086,-0.28972,1.4126,-0.68009,-0.60748
0.31402,-0.56312,0.18566,1.5115,0.80861,-0.76725,0.38985,-0.87545
-0.58415,1.2551,0.029685,-0.63547
0.32274,-0.89585,-1.0453,0.93062,-0.29096,1.4128,-0.67774,-0.60807
0.31291,-0.56271,0.18582,1.5116,0.81165,-0.76732,0.39024,-0.87621
-0.58564,1.2566,0.028706,-0.63484
0.32326,-0.8982,-1.0452,0.93035,-0.29251,1.4129,-0.67496,-0.60887
0.31184,-0.56197,0.18625,1.5117,0.81545,-0.76739,0.39024,-0.87737
-0.58602,1.2535,0.036432,-0.6374
0.32358,-0.89958,-1.0452,0.93003,-0.29322,1.413,-0.67334,-0.60902
0.31077,-0.56126,0.18609,1.5117,0.81738,-0.76746,0.39119,-0.87772
-0.58938,1.2606,0.027094,-0.63549
0.3245,-0.9022,-1.0452,0.92966,-0.29494,1.4132,-0.66998,-0.60991
0.30986,-0.55926,0.18724,1.512,0.82173,-0.7675,0.39057,-0.87972
-0.59128,1.2489,0.042462,-0.63682
0.32487,-0.90404,-1.0452,0.92944,-0.29624,1.4133,-0.66759,-0.61056
0.3089,-0.55874,0.18772,1.5122,0.82455,-0.76755,0.39054,-0.8807
-0.59192,1.2441,0.047266,-0.63704
0.32569,-0.90626,-1.0452,0.92899,-0.29752,1.4135,-0.66476,-0.61106
0.30778,-0.55685,0.18821,1.5123,0.82811,-0.76761,0.39082,-0.88208
-0.59592,1.2438,0.049165,-0.63623
0.32616,-0.90795,-1.0452,0.92872,-0.29861,1.4136,-0.66248,-0.61145
0.30687,-0.55573,0.18884,1.5126,0.83031,-0.76763,0.39095,-0.88315
-0.59965,1.2406,0.046499,-0.6312
0.3244,-0.90723,-1.0452,0.92886,-0.29852,1.4136,-0.66374,-0.61144
0.30611,-0.56139,0.18776,1.5124,0.82756,-0.7677,0.39221,-0.88104
-0.59156,1.2473,0.028557,-0.63077
0.32385,-0.90818,-1.0452,0.92873,-0.2993,1.4138,-0.66304,-0.61178
0.30508,-0.56396,0.1871,1.5123,0.82836,-0.76779,0.3932,-0.88031
-0.58772,1.2554,0.020073,-0.63255
0.32399,-0.90971,-1.0452,0.92839,-0.30029,1.4139,-0.66121,-0.61237
0.30409,-0.56445,0.1873,1.5124,0.83075,-0.76789,0.39341,-0.88089
-0.58498,1.2514,0.028387,-0.63738
0.32594,-0.91329,-1.0452,0.92783,-0.30226,1.4141,-0.65663,-0.61307
0.30289,-0.55932,0.18856,1.5127,0.83658,-0.7679,0.39315,-0.88378
-0.59532,1.2475,0.034092,-0.63219
0.32693,-0.91603,-1.0452,0.92741,-0.30391,1.4142,-0.65351,-0.61372
0.3017,-0.55759,0.18893,1.5128,0.84104,-0.768,0.39344,-0.88521
-0.59708,1.247,0.042685,-0.63597
0.32728,-0.91749,-1.0452,0.92721,-0.30477,1.4143,-0.65169,-0.61394
0.30064,-0.5572,0.18875,1.5127,0.84294,-0.76807,0.39427,-0.88559
-0.59944,1.2538,0.034686,-0.63506
0.32487,-0.91588,-1.0451,0.92736,-0.30435,1.4144,-0.6538,-0.61383
0.30003,-0.56471,0.18773,1.5127,0.83828,-0.76813,0.39549,-0.88278
-0.58714,1.2543,0.018079,-0.63516
0.32451,-0.91663,-1.0451,0.92707,-0.30505,1.4145,-0.65276,-0.61437
0.29926,-0.56673,0.18795,1.5128,0.83918,-0.76821,0.39554,-0.88284
-0.58096,1.2462,0.02722,-0.64061
0.32469,-0.91807,-1.0451,0.927,-0.30608,1.4146,-0.65033,-0.61498
0.2981,-0.56678,0.18835,1.513,0.84095,-0.76824,0.39554,-0.88362
-0.58215,1.2422,0.024984,-0.63626
0.32527,-0.92024,-1.0451,0.92669,-0.30749,1.4148,-0.64758,-0.6157
0.29696,-0.56628,0.18873,1.5132,0.84416,-0.7683,0.39558,-0.88469
-0.58219,1.2394,0.030281,-0.63742
0.32602,-0.92236,-1.0451,0.9263,-0.30867,1.4149,-0.64492,-0.61615
0.29573,-0.56493,0.18901,1.5133,0.8471,-0.76835,0.39601,-0.88579
-0.58606,1.2413,0.026729,-0.63424
0.32674,-0.92475,-1.0451,0.92592,-0.31009,1.4151,-0.64248,-0.61661
0.29443,-0.56435,0.18871,1.5132,0.85076,-0.76847,0.39696,-0.88641
-0.58595,1.249,0.027892,-0.63976
0.32518,-0.92391,-1.0451,0.92587,-0.31014,1.4151,-0.64305,-0.61694
0.29393,-0.56965,0.1888,1.5134,0.848,-0.76851,0.39699,-0.88514
-0.57486,1.2355,0.029653,-0.6414
0.32749,-0.92751,-1.0451,0.92537,-0.31204,1.4153,-0.63777,-0.61764
0.29245,-0.56322,0.19017,1.5137,0.85408,-0.7685,0.3966,-0.88855
-0.58958,1.2338,0.029933,-0.63169
0.32787,-0.92962,-1.0451,0.92506,-0.31338,1.4154,-0.63574,-0.61801
0.29109,-0.56372,0.18958,1.5136,0.85674,-0.76861,0.39779,-0.88865
-0.58899,1.2452,0.023102,-0.63423
0.32846,-0.93125,-1.0451,0.92487,-0.31442,1.4155,-0.63324,-0.61846
0.28997,-0.5626,0.19002,1.5138,0.85899,-0.76865,0.39796,-0.88971
-0.5925,1.244,0.020832,-0.63013
0.32632,-0.92989,-1.045,0.92502,-0.31407,1.4156,-0.63485,-0.61843
0.28914,-0.56967,0.18913,1.5138,0.85469,-0.76871,0.39917,-0.88713
-0.58109,1.2444,0.0051526,-0.62846
0.32817,-0.93375,-1.045,0.92442,-0.31619,1.4157,-0.63074,-0.619
0.28749,-0.56585,0.18931,1.5138,0.8608,-0.7688,0.40005,-0.88908
-0.58862,1.2547,0.0040414,-0.62809
0.33006,-0.9373,-1.045,0.92386,-0.31827,1.4159,-0.62632,-0.61966
0.28608,-0.5615,0.19026,1.5141,0.86641,-0.76886,0.40005,-0.89169
-0.59656,1.252,0.011275,-0.62552
0.32987,-0.93854,-1.045,0.92364,-0.31946,1.4161,-0.62488,-0.62039
0.28536,-0.56422,0.19045,1.5142,0.8677,-0.76896,0.39983,-0.89191
-0.58641,1.2398,0.029125,-0.63626
0.3304,-0.93961,-1.045,0.92344,-0.32005,1.4162,-0.62252,-0.62088
0.28451,-0.56334,0.1913,1.5145,0.86924,-0.76898,0.3994,-0.89321
-0.58764,1.2292,0.036037,-0.63501
0.33097,-0.94129,-1.045,0.92302,-0.32103,1.4163,-0.62042,-0.62125
0.28339,-0.56313,0.19132,1.5146,0.87162,-0.76909,0.39998,-0.89385
-0.58614,1.2292,0.040797,-0.64014
0.33191,-0.94322,-1.045,0.92272,-0.32207,1.4164,-0.61769,-0.62135
0.28215,-0.56085,0.19172,1.5147,0.87352,-0.76909,0.40064,-0.89503
-0.59479,1.2343,0.02559,-0.63009
0.33193,-0.94438,-1.045,0.92254,-0.3231,1.4165,-0.61599,-0.62197
0.28128,-0.5623,0.1922,1.515,0.8746,-0.76913,0.40041,-0.89552
-0.59051,1.2243,0.033919,-0.63141
0.33196,-0.94511,-1.045,0.9224,-0.32362,1.4166,-0.61464,-0.62221
0.28029,-0.56296,0.19237,1.5151,0.87492,-0.76915,0.4008,-0.89578
-0.59171,1.2246,0.0259,-0.62613
0.33278,-0.94735,-1.045,0.92201,-0.32504,1.4168,-0.61195,-0.62287
0.2791,-0.56251,0.1925,1.5152,0.87832,-0.76925,0.40101,-0.89685
-0.59071,1.2249,0.032648,-0.63005
0.33145,-0.94705,-1.0449,0.922,-0.32513,1.4169,-0.61272,-0.62275
0.27786,-0.56808,0.19084,1.5148,0.87604,-0.76939,0.40311,-0.89443
-0.58172,1.2406,0.011731,-0.63343
0.32964,-0.94582,-1.0449,0.922,-0.32475,1.4169,-0.614,-0.62284
0.27719,-0.57481,0.19038,1.515,0.87181,-0.76943,0.40383,-0.89224
-0.56958,1.2341,0.0028077,-0.6322
0.33284,-0.9511,-1.0449,0.92131,-0.32773,1.4171,-0.60727,-0.62401
0.27558,-0.56756,0.1918,1.5153,0.88084,-0.7695,0.40301,-0.8966
-0.57934,1.2274,0.025132,-0.63547
0.33474,-0.9548,-1.0449,0.92079,-0.32995,1.4173,-0.60283,-0.62465
0.27408,-0.56407,0.19224,1.5153,0.88638,-0.76958,0.40333,-0.89874
-0.58445,1.2303,0.030015,-0.63713
0.33424,-0.95513,-1.0449,0.92066,-0.3303,1.4174,-0.60254,-0.62459
0.27288,-0.56704,0.19117,1.5151,0.88553,-0.76969,0.40501,-0.89741
-0.58052,1.2437,0.012103,-0.6385
0.33654,-0.95873,-1.0449,0.92007,-0.33238,1.4176,-0.59742,-0.62526
0.27152,-0.56139,0.1928,1.5156,0.89096,-0.76969,0.40438,-0.90084
-0.59091,1.2323,0.023587,-0.63339
0.33579,-0.95824,-1.0449,0.9201,-0.33228,1.4176,-0.59724,-0.62528
0.27052,-0.5642,0.19254,1.5157,0.8889,-0.76972,0.40517,-0.89997
-0.58849,1.2337,0.010492,-0.62865
0.33576,-0.95945,-1.0449,0.91994,-0.3331,1.4177,-0.59605,-0.62556
0.26918,-0.56638,0.19164,1.5155,0.89005,-0.76986,0.40652,-0.89932
-0.58339,1.2446,0.0040701,-0.6341
0.33625,-0.96086,-1.0449,0.91967,-0.33398,1.4178,-0.59399,-0.6259
0.26809,-0.5665,0.19202,1.5157,0.89123,-0.7699,0.40679,-0.90002
-0.58315,1.2405,0.0045136,-0.63249
0.33668,-0.96215,-1.0449,0.91941,-0.33505,1.4179,-0.5919,-0.62651
0.26737,-0.56686,0.19313,1.5162,0.89217,-0.76989,0.40604,-0.9012
-0.58144,1.224,0.01496,-0.62993
0.33789,-0.9648,-1.0448,0.91896,-0.33661,1.4181,-0.58877,-0.62703
0.2657,-0.56558,0.19274,1.516,0.89624,-0.77004,0.40698,-0.90218
-0.58158,1.2323,0.016825,-0.63611
0.33738,-0.96484,-1.0448,0.91881,-0.33695,1.4182,-0.58797,-0.62727
0.26481,-0.56834,0.19314,1.5164,0.89435,-0.77004,0.40709,-0.90184
-0.57751,1.2217,0.013603,-0.63097
0.34029,-0.96957,-1.0448,0.91821,-0.33965,1.4183,-0.58204,-0.62799
0.26311,-0.56137,0.19434,1.5167,0.90168,-0.77006,0.40693,-0.90551
-0.59189,1.2234,0.016711,-0.62407
0.34084,-0.97114,-1.0448,0.91799,-0.34074,1.4184,-0.57989,-0.62828
0.26181,-0.56121,0.19443,1.5168,0.90311,-0.77011,0.40755,-0.90606
-0.5939,1.2262,0.010081,-0.61979
0.34044,-0.97143,-1.0448,0.91779,-0.34129,1.4185,-0.57931,-0.62871
0.26112,-0.56433,0.19491,1.5172,0.90208,-0.77013,0.40737,-0.90593
-0.58696,1.2132,0.016504,-0.61929
0.34136,-0.97388,-1.0448,0.91737,-0.34274,1.4187,-0.57695,-0.62914
0.25971,-0.56453,0.19427,1.517,0.90533,-0.77028,0.40845,-0.90632
-0.58392,1.2231,0.016251,-0.62671
0.34177,-0.97478,-1.0448,0.91714,-0.34331,1.4188,-0.57508,-0.62942
0.2587,-0.56476,0.19481,1.5173,0.9056,-0.7703,0.40851,-0.90701
-0.58419,1.2161,0.016362,-0.62317
0.34243,-0.97647,-1.0448,0.91681,-0.34418,1.4189,-0.57318,-0.62956
0.25731,-0.56462,0.19458,1.5173,0.90716,-0.77038,0.40964,-0.9073
-0.58588,1.2246,0.0062417,-0.62106
0.34349,-0.97869,-1.0448,0.91658,-0.34564,1.419,-0.57012,-0.63007
0.25594,-0.56365,0.19467,1.5174,0.91018,-0.77047,0.41002,-0.90845
-0.58614,1.226,0.0096716,-0.62353
0.34257,-0.9785,-1.0448,0.91661,-0.34576,1.4191,-0.57033,-0.63012
0.2548,-0.5686,0.19361,1.5173,0.90783,-0.77056,0.41145,-0.90651
-0.57738,1.2335,-0.0052714,-0.62465
0.34378,-0.98078,-1.0447,0.91624,-0.34731,1.4192,-0.56697,-0.63059
0.25342,-0.56665,0.19451,1.5177,0.91028,-0.77058,0.41143,-0.90816
-0.58195,1.2271,-0.0036496,-0.61884
0.34565,-0.9841,-1.0447,0.91558,-0.34926,1.4194,-0.56315,-0.63115
0.25209,-0.564,0.19505,1.5179,0.91501,-0.77068,0.41159,-0.91028
-0.58282,1.2226,0.010346,-0.62476
0.34614,-0.98499,-1.0447,0.91562,-0.34964,1.4194,-0.56117,-0.63116
0.25085,-0.56301,0.19534,1.5181,0.91509,-0.77066,0.41224,-0.91083
-0.59053,1.2281,-0.007968,-0.61237
0.34712,-0.98704,-1.0447,0.91523,-0.35113,1.4195,-0.5585,-0.63184
0.24985,-0.56308,0.19584,1.5183,0.91777,-0.77075,0.41188,-0.91228
-0.58529,1.2166,0.011267,-0.62013
0.34817,-0.98906,-1.0447,0.91482,-0.3524,1.4197,-0.55597,-0.63226
0.24873,-0.56246,0.19619,1.5185,0.92012,-0.77083,0.4121,-0.91337
-0.58464,1.2132,0.016923,-0.62224
0.34984,-0.99206,-1.0447,0.9145,-0.35414,1.4198,-0.5522,-0.63255
0.24702,-0.55944,0.1963,1.5185,0.92383,-0.77089,0.41298,-0.91488
-0.59245,1.2229,0.0070656,-0.61736
0.35037,-0.99251,-1.0447,0.91433,-0.35441,1.4199,-0.55051,-0.63278
0.2464,-0.55903,0.19726,1.5189,0.92386,-0.77089,0.41248,-0.91609
-0.59378,1.2103,0.013392,-0.61393
0.35001,-0.99311,-1.0447,0.91429,-0.35515,1.42,-0.55,-0.63301
0.24537,-0.56295,0.19652,1.5189,0.92305,-0.77099,0.41349,-0.91498
-0.58505,1.2142,0.0078282,-0.61782
0.35012,-0.99369,-1.0447,0.91404,-0.35574,1.4201,-0.54877,-0.63334
0.24451,-0.56483,0.19696,1.5192,0.92256,-0.77103,0.41351,-0.91517
-0.58033,1.2044,0.012787,-0.61773
0.35155,-0.9966,-1.0447,0.91345,-0.35753,1.4203,-0.54568,-0.63381
0.24311,-0.56367,0.19715,1.5193,0.9261,-0.77113,0.41404,-0.91641
-0.57923,1.2033,0.020132,-0.62214
0.35148,-0.99704,-1.0446,0.91324,-0.35765,1.4203,-0.54523,-0.63366
0.24182,-0.56585,0.19622,1.5192,0.9251,-0.77121,0.41572,-0.91536
-0.57825,1.2184,-0.0021355,-0.61929
0.35233,-0.99926,-1.0446,0.91307,-0.35915,1.4204,-0.54252,-0.63398
0.24027,-0.56562,0.1961,1.5192,0.9268,-0.77125,0.41662,-0.91568
-0.58082,1.2265,-0.015138,-0.61344
0.35418,-1.0022,-1.0446,0.91242,-0.36085,1.4206,-0.53915,-0.6346
0.2393,-0.56386,0.19666,1.5194,0.93105,-0.77138,0.41628,-0.91793
-0.57656,1.2144,0.01006,-0.62608
0.35642,-1.0058,-1.0446,0.91198,-0.36295,1.4207,-0.53456,-0.63493
0.23756,-0.55946,0.197,1.5195,0.93584,-0.77144,0.41696,-0.9201
-0.58581,1.222,0.00465,-0.62254
0.3574,-1.0073,-1.0446,0.91183,-0.36404,1.4208,-0.53175,-0.63516
0.23654,-0.55784,0.19805,1.5199,0.93664,-0.77141,0.41675,-0.92156
-0.59154,1.2131,0.0035699,-0.61363
0.35663,-1.0064,-1.0446,0.91176,-0.36388,1.4208,-0.53196,-0.63536
0.23601,-0.56203,0.19843,1.5203,0.93345,-0.77144,0.4166,-0.92089
-0.58282,1.1978,0.0092412,-0.61333
0.35601,-1.0062,-1.0446,0.91161,-0.36376,1.4209,-0.53252,-0.6353
0.23494,-0.56638,0.19742,1.5202,0.9315,-0.77154,0.41817,-0.91919
-0.57544,1.2084,-0.0061225,-0.6145
0.35622,-1.0072,-1.0446,0.91149,-0.36448,1.421,-0.53119,-0.63558
0.23365,-0.56845,0.19697,1.5202,0.93162,-0.77162,0.41906,-0.91875
-0.57138,1.2134,-0.013384,-0.61431
0.35791,-1.01,-1.0446,0.91098,-0.36638,1.4212,-0.52754,-0.63627
0.23269,-0.56667,0.1981,1.5206,0.93478,-0.77164,0.41825,-0.92101
-0.57129,1.1983,0.0036949,-0.6153
0.36003,-1.0137,-1.0445,0.91027,-0.3686,1.4213,-0.52346,-0.6367
0.23088,-0.56377,0.19801,1.5206,0.93973,-0.77176,0.41916,-0.92274
-0.57401,1.206,0.0048593,-0.61918
0.36241,-1.0177,-1.0445,0.90971,-0.37098,1.4215,-0.51857,-0.63721
0.2293,-0.55946,0.19895,1.521,0.9445,-0.77179,0.41917,-0.92539
-0.58195,1.2035,0.0086637,-0.61485
0.36224,-1.018,-1.0445,0.90969,-0.37122,1.4215,-0.51817,-0.63715
0.2282,-0.56241,0.19798,1.5208,0.94342,-0.7719,0.42069,-0.9241
-0.57649,1.2146,-0.0058257,-0.61746
0.36332,-1.0195,-1.0445,0.90939,-0.37213,1.4216,-0.5156,-0.63738
0.22707,-0.56083,0.19896,1.5212,0.94419,-0.77187,0.42057,-0.92552
-0.58245,1.2073,-0.0078314,-0.60838
0.36631,-1.0243,-1.0445,0.90885,-0.37496,1.4218,-0.51006,-0.63792
0.22523,-0.55484,0.19939,1.5213,0.95155,-0.77196,0.42107,-0.92862
-0.5929,1.2169,-0.0062352,-0.60796
0.36515,-1.0225,-1.0445,0.90889,-0.37423,1.4218,-0.51126,-0.63801
0.22524,-0.56058,0.20002,1.5218,0.94648,-0.77196,0.42052,-0.92766
-0.58047,1.1932,0.004761,-0.60894
0.36509,-1.0232,-1.0445,0.90875,-0.37492,1.4219,-0.51041,-0.63823
0.2242,-0.56363,0.19979,1.5219,0.94536,-0.77201,0.42121,-0.92691
-0.57456,1.1931,-0.0012175,-0.60766
0.36599,-1.0246,-1.0445,0.90843,-0.37583,1.422,-0.50836,-0.63855
0.22325,-0.56374,0.2002,1.5222,0.94619,-0.77205,0.4212,-0.92776
-0.57368,1.1873,0.0020349,-0.60626
0.36671,-1.026,-1.0445,0.90806,-0.37677,1.4221,-0.50648,-0.63874
0.22185,-0.56411,0.20027,1.5224,0.94671,-0.77208,0.42197,-0.92805
-0.57517,1.1917,-0.0080929,-0.60029
0.36974,-1.0314,-1.0445,0.90732,-0.37976,1.4223,-0.50118,-0.63921
0.21948,-0.55901,0.19962,1.5221,0.95455,-0.77226,0.42358,-0.93026
-0.58218,1.2134,-0.014198,-0.60518
0.37153,-1.0342,-1.0444,0.90678,-0.38161,1.4224,-0.49784,-0.63958
0.21842,-0.55707,0.20036,1.5225,0.9575,-0.77231,0.42354,-0.93209
-0.58356,1.206,-0.0052026,-0.60603
0.37131,-1.034,-1.0444,0.90688,-0.38187,1.4225,-0.49726,-0.63979
0.21811,-0.56025,0.20094,1.5229,0.95486,-0.7723,0.42309,-0.93186
-0.57748,1.1898,-0.00025653,-0.60324
0.37202,-1.0355,-1.0444,0.90642,-0.38283,1.4226,-0.49569,-0.63992
0.21677,-0.56132,0.20058,1.5229,0.95549,-0.77238,0.4242,-0.93174
-0.57504,1.1961,-0.0079881,-0.60321
0.37216,-1.0363,-1.0444,0.90616,-0.38329,1.4227,-0.49492,-0.63994
0.21557,-0.56398,0.19997,1.5229,0.95469,-0.77248,0.42555,-0.93074
-0.56891,1.2019,-0.017034,-0.60531
0.37574,-1.0417,-1.0444,0.90551,-0.38668,1.4229,-0.48825,-0.6407
0.21395,-0.5569,0.20125,1.5232,0.96257,-0.77253,0.42494,-0.93512
-0.57896,1.1965,-0.00042722,-0.60581
0.37596,-1.0419,-1.0444,0.90548,-0.38664,1.4229,-0.48737,-0.64049
0.21277,-0.55764,0.20089,1.5233,0.96143,-0.77258,0.42621,-0.9346
-0.58179,1.2062,-0.019495,-0.59975
0.37841,-1.046,-1.0444,0.90502,-0.38922,1.423,-0.48291,-0.64098
0.21142,-0.55428,0.20142,1.5234,0.96659,-0.77265,0.42636,-0.93701
-0.58523,1.2056,-0.011525,-0.60179
0.38043,-1.0488,-1.0444,0.90467,-0.39111,1.4232,-0.47911,-0.64126
0.21051,-0.55108,0.20237,1.5238,0.96979,-0.77268,0.42608,-0.93936
-0.59035,1.1969,-0.0023796,-0.60039
0.37977,-1.0477,-1.0444,0.90478,-0.39055,1.4232,-0.47965,-0.64112
0.21007,-0.55469,0.20253,1.5241,0.96601,-0.77268,0.42648,-0.93832
-0.58679,1.1917,-0.010835,-0.5947
0.37926,-1.0474,-1.0444,0.9047,-0.3905,1.4232,-0.48,-0.64113
0.20908,-0.55896,0.20175,1.5241,0.9639,-0.77278,0.42777,-0.93673
-0.57776,1.1974,-0.019784,-0.5975
0.38054,-1.0495,-1.0444,0.90427,-0.39176,1.4234,-0.47752,-0.64139
0.20787,-0.55827,0.20199,1.5243,0.96566,-0.77284,0.42818,-0.93772
-0.57798,1.1964,-0.018422,-0.59711
0.38053,-1.0497,-1.0443,0.90404,-0.392,1.4234,-0.47702,-0.6415
0.20703,-0.56121,0.20203,1.5246,0.96372,-0.77288,0.42866,-0.93704
-0.57258,1.1921,-0.022146,-0.59456
0.38211,-1.0528,-1.0443,0.90376,-0.39408,1.4235,-0.47357,-0.64186
0.20527,-0.56001,0.20163,1.5245,0.96699,-0.77296,0.4298,-0.93768
-0.57483,1.2056,-0.033567,-0.59233
0.38387,-1.0552,-1.0443,0.90336,-0.39565,1.4236,-0.47012,-0.6423
0.20443,-0.55775,0.20315,1.5251,0.96894,-0.77294,0.4288,-0.94029
-0.57823,1.1865,-0.017029,-0.58853
0.38557,-1.0579,-1.0443,0.90297,-0.39742,1.4237,-0.46677,-0.64268
0.20327,-0.55612,0.2039,1.5255,0.97138,-0.77296,0.42874,-0.94198
-0.58077,1.1809,-0.012206,-0.58517
0.38549,-1.058,-1.0443,0.90287,-0.39742,1.4238,-0.46643,-0.64264
0.20212,-0.55851,0.2035,1.5257,0.96969,-0.77301,0.42989,-0.94097
-0.57916,1.1879,-0.027659,-0.57981
0.38827,-1.0625,-1.0443,0.90234,-0.40018,1.4239,-0.46145,-0.64307
0.20038,-0.55428,0.20355,1.5257,0.97579,-0.77313,0.43057,-0.94339
-0.58405,1.1957,-0.02513,-0.58293
0.38869,-1.0629,-1.0443,0.90196,-0.40054,1.4241,-0.46118,-0.64313
0.2001,-0.55732,0.20343,1.5258,0.97496,-0.77325,0.43088,-0.94325
-0.57158,1.1847,-0.011164,-0.59489
0.39068,-1.066,-1.0443,0.90146,-0.40247,1.4242,-0.45736,-0.64344
0.19873,-0.55427,0.20424,1.5262,0.97807,-0.77327,0.43098,-0.94526
-0.57774,1.1815,-0.0087427,-0.59033
0.39202,-1.0686,-1.0443,0.90117,-0.40394,1.4243,-0.45472,-0.64348
0.19698,-0.55332,0.20363,1.5261,0.9802,-0.77335,0.43267,-0.94533
-0.58223,1.2007,-0.030476,-0.58522
0.39305,-1.07,-1.0443,0.901,-0.40508,1.4244,-0.45253,-0.6437
0.19622,-0.5535,0.20421,1.5264,0.98071,-0.77338,0.43257,-0.94634
-0.58063,1.1918,-0.023767,-0.5849
0.39524,-1.0729,-1.0443,0.90054,-0.40687,1.4245,-0.44908,-0.64386
0.19552,-0.55097,0.20468,1.5266,0.98411,-0.77347,0.4326,-0.94843
-0.58067,1.1846,-0.010662,-0.59144
0.39429,-1.0715,-1.0442,0.90067,-0.4063,1.4245,-0.45007,-0.64368
0.19509,-0.55602,0.20419,1.5267,0.97977,-0.77352,0.43349,-0.94637
-0.57208,1.184,-0.021679,-0.59041
0.39469,-1.0719,-1.0442,0.90032,-0.40658,1.4246,-0.44948,-0.64378
0.19469,-0.55819,0.20473,1.5271,0.97825,-0.77353,0.43342,-0.94646
-0.5675,1.1728,-0.01715,-0.58856
0.3951,-1.0728,-1.0442,0.90014,-0.40716,1.4247,-0.44859,-0.64378
0.19321,-0.56058,0.2031,1.5267,0.9788,-0.77372,0.43547,-0.94512
-0.55892,1.1918,-0.030722,-0.59825
0.39752,-1.0767,-1.0442,0.89963,-0.40968,1.4248,-0.44409,-0.64425
0.19194,-0.55719,0.20405,1.5271,0.98269,-0.77373,0.4352,-0.94757
-0.56459,1.1856,-0.024604,-0.59426
0.39939,-1.0799,-1.0442,0.89922,-0.41181,1.4249,-0.44039,-0.64455
0.19046,-0.55565,0.20409,1.5272,0.98549,-0.7738,0.43585,-0.94862
-0.56568,1.1893,-0.027799,-0.59381
0.40139,-1.0829,-1.0442,0.89877,-0.41386,1.425,-0.43664,-0.64482
0.18958,-0.55307,0.20525,1.5277,0.98761,-0.77377,0.43544,-0.95071
-0.57126,1.1783,-0.022126,-0.58745
0.40377,-1.0866,-1.0442,0.89829,-0.4161,1.4252,-0.43242,-0.64513
0.18794,-0.5495,0.20554,1.5278,0.99215,-0.77384,0.43603,-0.95281
-0.57761,1.1853,-0.024045,-0.58567
0.40352,-1.0854,-1.0442,0.89817,-0.4154,1.4252,-0.43296,-0.64504
0.18827,-0.55224,0.20696,1.5285,0.9881,-0.77376,0.43511,-0.95308
-0.5756,1.1614,-0.014706,-0.57765
0.40343,-1.0858,-1.0442,0.8981,-0.41575,1.4253,-0.43273,-0.64516
0.1872,-0.55584,0.20625,1.5285,0.98676,-0.77383,0.43631,-0.9517
-0.56878,1.1705,-0.027519,-0.57715
0.40542,-1.0892,-1.0442,0.89771,-0.41809,1.4254,-0.42897,-0.64553
0.18583,-0.55417,0.2062,1.5286,0.99032,-0.77391,0.43684,-0.95302
-0.56925,1.1751,-0.027659,-0.57838
0.40478,-1.0878,-1.0442,0.89773,-0.41723,1.4254,-0.42967,-0.64546
0.18508,-0.55775,0.20625,1.5289,0.98654,-0.77391,0.43743,-0.95172
-0.56678,1.1746,-0.039602,-0.5705
0.4091,-1.0945,-1.0442,0.89681,-0.42152,1.4256,-0.4224,-0.64622
0.18379,-0.55049,0.20822,1.5295,0.99433,-0.77391,0.43612,-0.95693
-0.57609,1.1562,-0.013015,-0.56885
0.41035,-1.0963,-1.0441,0.89636,-0.42264,1.4258,-0.42081,-0.64609
0.18287,-0.55136,0.20716,1.5293,0.99588,-0.77409,0.4377,-0.95663
-0.56863,1.166,-0.017146,-0.58028
0.41313,-1.1002,-1.0441,0.89575,-0.42489,1.4259,-0.41639,-0.64619
0.18152,-0.54639,0.20777,1.5295,1.0005,-0.77412,0.43815,-0.9592
-0.57996,1.171,-0.021271,-0.57453
0.41434,-1.1019,-1.0441,0.89541,-0.42611,1.426,-0.41438,-0.64622
0.18091,-0.54661,0.20805,1.5297,1.0011,-0.77418,0.4385,-0.9598
-0.57737,1.1659,-0.017668,-0.57609
0.41541,-1.1031,-1.0441,0.89508,-0.42695,1.4261,-0.41285,-0.64631
0.1807,-0.54705,0.20878,1.5301,1.0012,-0.7742,0.4382,-0.96079
-0.57492,1.1536,-0.0073836,-0.57646
0.41539,-1.1034,-1.0441,0.89503,-0.42726,1.4262,-0.41279,-0.6462
0.17988,-0.5507,0.20753,1.5299,0.9998,-0.77432,0.43983,-0.95894
-0.56615,1.1671,-0.023495,-0.58084
0.41671,-1.1053,-1.0441,0.89485,-0.42852,1.4262,-0.41017,-0.64623
0.17886,-0.54973,0.20763,1.53,1.0008,-0.77436,0.4404,-0.95964
-0.56898,1.17,-0.030003,-0.57729
0.41937,-1.1094,-1.0441,0.89413,-0.43099,1.4264,-0.40578,-0.64662
0.17729,-0.54554,0.20855,1.5304,1.0055,-0.77436,0.4405,-0.96227
-0.57878,1.1713,-0.029586,-0.56981
0.41931,-1.1091,-1.0441,0.89406,-0.43094,1.4265,-0.40574,-0.64646
0.17688,-0.54829,0.20855,1.5307,1.0028,-0.77438,0.44116,-0.96119
-0.57579,1.1701,-0.039066,-0.56518
0.42049,-1.1115,-1.0441,0.89392,-0.43246,1.4265,-0.40304,-0.64666
0.1752,-0.5477,0.20835,1.5309,1.0043,-0.77441,0.44231,-0.96127
-0.5806,1.184,-0.056893,-0.55615
0.42095,-1.1114,-1.0441,0.89379,-0.43234,1.4265,-0.40252,-0.64656
0.17517,-0.5489,0.20921,1.5313,1.0025,-0.77441,0.44196,-0.9619
-0.57925,1.1692,-0.049097,-0.55316
0.42511,-1.1174,-1.0441,0.89291,-0.43627,1.4268,-0.39601,-0.6471
0.174,-0.54267,0.21033,1.5317,1.0103,-0.7745,0.44119,-0.96671
-0.58277,1.1557,-0.020157,-0.56147
0.42634,-1.1193,-1.0441,0.89255,-0.43742,1.4269,-0.3944,-0.64702
0.17319,-0.54289,0.20987,1.5317,1.0115,-0.77459,0.44236,-0.96659
-0.58166,1.1648,-0.030083,-0.56244
0.42686,-1.1198,-1.0441,0.89245,-0.43788,1.427,-0.39362,-0.64699
0.17313,-0.54465,0.21035,1.532,1.0101,-0.77459,0.4423,-0.96664
-0.57891,1.156,-0.028094,-0.55953
0.42648,-1.1195,-1.044,0.89239,-0.43805,1.427,-0.3938,-0.647
0.17238,-0.54927,0.20954,1.532,1.0076,-0.7747,0.44349,-0.96473
-0.56675,1.1599,-0.035001,-0.56433
0.42936,-1.1235,-1.044,0.89164,-0.44036,1.4272,-0.38975,-0.64704
0.17134,-0.5454,0.20967,1.5321,1.0124,-0.7748,0.44414,-0.96694
-0.57035,1.1631,-0.031451,-0.56879
0.42943,-1.1234,-1.044,0.89154,-0.44062,1.4273,-0.38961,-0.64704
0.17136,-0.54905,0.20972,1.5323,1.0101,-0.77485,0.44424,-0.96614
-0.55977,1.1519,-0.024844,-0.57287
0.42946,-1.1233,-1.044,0.89141,-0.44058,1.4274,-0.38964,-0.64695
0.17112,-0.55258,0.20938,1.5324,1.0077,-0.77491,0.44491,-0.96487
-0.55046,1.15,-0.028332,-0.57582
0.43159,-1.1265,-1.044,0.89103,-0.44278,1.4274,-0.38568,-0.64734
0.17012,-0.54994,0.21058,1.5329,1.0101,-0.77485,0.44433,-0.9671
-0.55884,1.1439,-0.027242,-0.56436
0.43404,-1.1304,-1.044,0.89048,-0.44538,1.4276,-0.38155,-0.64757
0.16864,-0.54709,0.21034,1.5329,1.0144,-0.77494,0.44519,-0.96856
-0.5618,1.1539,-0.032369,-0.56558
0.43798,-1.1369,-1.044,0.88974,-0.44937,1.4277,-0.37463,-0.64805
0.16615,-0.53952,0.21113,1.5332,1.0221,-0.77494,0.44579,-0.97219
-0.58054,1.1679,-0.043027,-0.55301
0.43878,-1.1375,-1.044,0.88959,-0.44974,1.4278,-0.37351,-0.64781
0.16585,-0.54019,0.21123,1.5334,1.0214,-0.775,0.44634,-0.97223
-0.5793,1.1654,-0.04545,-0.55277
0.43763,-1.1351,-1.044,0.88965,-0.44814,1.4278,-0.37579,-0.64748
0.16624,-0.54562,0.21135,1.5337,1.0158,-0.775,0.44665,-0.97036
-0.57073,1.1557,-0.047881,-0.55075
0.4393,-1.1379,-1.044,0.88925,-0.4499,1.4279,-0.37284,-0.6476
0.16493,-0.54432,0.21126,1.5339,1.0181,-0.77506,0.44759,-0.97092
-0.57359,1.1646,-0.05739,-0.54709
0.44131,-1.1412,-1.044,0.88891,-0.45232,1.428,-0.3694,-0.64796
0.16429,-0.54351,0.21183,1.5342,1.0207,-0.7751,0.44727,-0.97261
-0.57029,1.1543,-0.04373,-0.54998
0.44292,-1.1437,-1.044,0.88866,-0.45414,1.4281,-0.36627,-0.64813
0.16309,-0.54237,0.21199,1.5344,1.0225,-0.77513,0.44782,-0.97345
-0.57306,1.1587,-0.049551,-0.54552
0.44612,-1.1481,-1.044,0.88807,-0.457,1.4283,-0.36169,-0.64834
0.16249,-0.53843,0.21288,1.5347,1.0274,-0.7752,0.44742,-0.97673
-0.57549,1.1486,-0.031519,-0.55024
0.44657,-1.1481,-1.044,0.88786,-0.45719,1.4284,-0.36132,-0.64823
0.16294,-0.54049,0.21384,1.5352,1.0251,-0.77517,0.44686,-0.97699
-0.57153,1.1306,-0.021295,-0.54773
0.44786,-1.1502,-1.044,0.88769,-0.45855,1.4284,-0.35886,-0.64828
0.16172,-0.53969,0.2137,1.5353,1.0264,-0.7752,0.44779,-0.97731
-0.57658,1.1429,-0.037202,-0.54024
0.45046,-1.154,-1.0439,0.88717,-0.46095,1.4286,-0.35487,-0.64838
0.16035,-0.53677,0.21359,1.5354,1.0308,-0.7753,0.44871,-0.97897
-0.57963,1.1522,-0.040552,-0.54218
0.45097,-1.1543,-1.0439,0.887,-0.46134,1.4287,-0.35436,-0.6482
0.16043,-0.53881,0.21381,1.5357,1.0292,-0.77534,0.44897,-0.97867
-0.57443,1.1444,-0.037927,-0.54335
0.4508,-1.1541,-1.0439,0.88686,-0.46143,1.4288,-0.35442,-0.64813
0.16003,-0.54247,0.21351,1.5358,1.0265,-0.77538,0.44974,-0.97714
-0.56687,1.144,-0.044804,-0.54267
0.45302,-1.1572,-1.0439,0.8864,-0.46323,1.4289,-0.35139,-0.64802
0.15935,-0.54022,0.21331,1.5358,1.0296,-0.77548,0.45056,-0.97827
-0.56824,1.1495,-0.047521,-0.54618
0.45649,-1.1628,-1.0439,0.88576,-0.46698,1.4291,-0.34572,-0.64821
0.15779,-0.53544,0.21305,1.5358,1.0362,-0.77559,0.45162,-0.98042
-0.57265,1.1614,-0.051122,-0.54986
0.45622,-1.1619,-1.0439,0.88567,-0.46634,1.4291,-0.34613,-0.64794
0.15742,-0.53839,0.21285,1.536,1.033,-0.77564,0.45247,-0.97906
-0.56751,1.1609,-0.058551,-0.54948
0.45842,-1.1651,-1.0439,0.88519,-0.46853,1.4292,-0.34298,-0.64802
0.15711,-0.53698,0.21356,1.5363,1.0352,-0.77566,0.45228,-0.98073
-0.5675,1.1511,-0.048952,-0.54976
0.45729,-1.1631,-1.0439,0.88536,-0.46738,1.4292,-0.34444,-0.64797
0.15695,-0.5418,0.2139,1.5368,1.0302,-0.77562,0.45248,-0.97897
-0.5638,1.1465,-0.057613,-0.53995
0.46014,-1.1672,-1.0439,0.88491,-0.47009,1.4293,-0.33961,-0.64836
0.15579,-0.53733,0.21536,1.5373,1.0345,-0.77557,0.45179,-0.98244
-0.57573,1.1403,-0.049614,-0.52937
0.46084,-1.1675,-1.0439,0.88482,-0.47026,1.4294,-0.33935,-0.64802
0.15661,-0.5395,0.21547,1.5375,1.033,-0.77564,0.45179,-0.98241
-0.56631,1.1268,-0.038457,-0.53771
0.46239,-1.1694,-1.0439,0.8843,-0.47149,1.4295,-0.33757,-0.64802
0.15633,-0.53945,0.21573,1.5377,1.0342,-0.7757,0.45195,-0.98325
-0.5633,1.1209,-0.031566,-0.54038
0.46508,-1.1735,-1.0439,0.88381,-0.47407,1.4297,-0.33345,-0.64811
0.15524,-0.53592,0.21595,1.5379,1.0384,-0.77573,0.45252,-0.98509
-0.57133,1.1291,-0.03872,-0.53544
0.46495,-1.1734,-1.0439,0.88383,-0.47412,1.4297,-0.33312,-0.64804
0.15436,-0.53866,0.21533,1.5379,1.0365,-0.77578,0.45377,-0.98345
-0.56826,1.1413,-0.057538,-0.53106
0.46906,-1.1797,-1.0439,0.88316,-0.47829,1.4299,-0.32662,-0.64847
0.15311,-0.53249,0.21631,1.5383,1.0436,-0.7758,0.45337,-0.98751
-0.57758,1.1384,-0.046569,-0.52847
0.47013,-1.1809,-1.0439,0.88292,-0.47912,1.43,-0.32548,-0.64817
0.15334,-0.5336,0.21623,1.5384,1.0434,-0.77588,0.45389,-0.98744
-0.57118,1.1333,-0.043135,-0.53468
0.46947,-1.1796,-1.0439,0.88285,-0.4785,1.43,-0.32646,-0.64807
0.15317,-0.53788,0.21611,1.5386,1.0397,-0.7759,0.45446,-0.98571
-0.56406,1.1319,-0.049794,-0.53212
0.47153,-1.183,-1.0438,0.88245,-0.48086,1.4302,-0.32289,-0.6482
0.15191,-0.5363,0.21576,1.5387,1.0426,-0.77598,0.45547,-0.98622
-0.5649,1.1428,-0.059476,-0.53202
0.47275,-1.1845,-1.0438,0.88234,-0.48198,1.4302,-0.32096,-0.64815
0.15168,-0.53628,0.21617,1.539,1.043,-0.77599,0.45557,-0.98684
-0.56514,1.1385,-0.058331,-0.52947
0.47587,-1.1894,-1.0438,0.88176,-0.48516,1.4304,-0.31598,-0.64833
0.15042,-0.53222,0.21642,1.5391,1.0482,-0.77605,0.45614,-0.98906
-0.57074,1.1448,-0.059683,-0.52853
0.47795,-1.192,-1.0438,0.88135,-0.48677,1.4305,-0.31296,-0.64826
0.14997,-0.52986,0.21731,1.5395,1.0501,-0.77605,0.45603,-0.99101
-0.57668,1.1387,-0.055131,-0.52396
0.47783,-1.191,-1.0438,0.8813,-0.48612,1.4305,-0.3137,-0.64804
0.15045,-0.53302,0.21785,1.5399,1.0468,-0.77605,0.45581,-0.99067
-0.57068,1.1249,-0.047358,-0.52386
0.47745,-1.1899,-1.0438,0.88123,-0.48552,1.4306,-0.31478,-0.64776
0.15103,-0.53724,0.21776,1.5401,1.0432,-0.77609,0.45611,-0.98917
-0.56085,1.1164,-0.046314,-0.52609
0.47988,-1.1939,-1.0438,0.88077,-0.48816,1.4307,-0.31092,-0.64789
0.14987,-0.53509,0.21738,1.5401,1.0471,-0.77617,0.45707,-0.99012
-0.56198,1.1273,-0.053749,-0.52726
0.48109,-1.1956,-1.0438,0.88055,-0.48933,1.4308,-0.30887,-0.64789
0.14909,-0.53503,0.21724,1.5402,1.0478,-0.77622,0.45781,-0.99015
-0.56204,1.1332,-0.061834,-0.52503
0.48252,-1.1972,-1.0438,0.87998,-0.49019,1.431,-0.30742,-0.64775
0.14898,-0.53533,0.21752,1.5405,1.0482,-0.77628,0.45801,-0.99084
-0.55763,1.1257,-0.054293,-0.52901
0.48576,-1.2021,-1.0438,0.87953,-0.49361,1.4311,-0.30254,-0.64783
0.14835,-0.53138,0.21773,1.5406,1.0535,-0.77634,0.4583,-0.99309
-0.56174,1.1281,-0.052168,-0.53049
0.48731,-1.2041,-1.0438,0.87917,-0.49492,1.4312,-0.30033,-0.64788
0.14804,-0.53062,0.2186,1.541,1.0542,-0.77632,0.45802,-0.99438
-0.56465,1.1203,-0.047336,-0.52522
0.48775,-1.2044,-1.0438,0.8791,-0.49529,1.4312,-0.29932,-0.64791
0.14775,-0.53186,0.21927,1.5414,1.0527,-0.77628,0.45787,-0.99457
-0.56598,1.115,-0.04819,-0.51711
0.48851,-1.2054,-1.0438,0.87876,-0.49588,1.4314,-0.29864,-0.64773
0.14731,-0.5338,0.21829,1.5413,1.0527,-0.7764,0.45924,-0.99338
-0.55753,1.1252,-0.058104,-0.52395
0.49013,-1.2075,-1.0438,0.87853,-0.49727,1.4314,-0.29584,-0.64779
0.14662,-0.53205,0.21923,1.5418,1.0537,-0.77636,0.4591,-0.99484
-0.56581,1.1227,-0.06014,-0.51341
0.49399,-1.2132,-1.0438,0.87799,-0.50092,1.4316,-0.29005,-0.64787
0.14581,-0.52625,0.21999,1.542,1.06,-0.77639,0.45905,-0.99835
-0.57558,1.1222,-0.054297,-0.5114
0.49531,-1.2146,-1.0438,0.87761,-0.50197,1.4317,-0.28883,-0.64759
0.14642,-0.52735,0.22012,1.5421,1.06,-0.77647,0.45915,-0.99871
-0.56636,1.1097,-0.041716,-0.52091
0.49526,-1.2142,-1.0438,0.87746,-0.50175,1.4318,-0.28934,-0.6473
0.1468,-0.53039,0.2199,1.5423,1.0574,-0.7765,0.45974,-0.99727
-0.56048,1.1085,-0.048037,-0.52048
0.49695,-1.2172,-1.0437,0.87712,-0.50395,1.4319,-0.28605,-0.64769
0.14532,-0.5292,0.22019,1.5426,1.0596,-0.77649,0.4601,-0.99814
-0.56603,1.1172,-0.057287,-0.51051
0.49985,-1.2217,-1.0437,0.87655,-0.50685,1.4321,-0.28165,-0.64784
0.14394,-0.52652,0.2197,1.5425,1.0644,-0.77661,0.46115,-0.99958
-0.56418,1.1278,-0.059219,-0.51751
0.50118,-1.2234,-1.0437,0.87631,-0.50814,1.4322,-0.27988,-0.6477
0.14403,-0.52683,0.21995,1.5427,1.0648,-0.77664,0.46138,-0.99988
-0.56179,1.1234,-0.057364,-0.51803
0.50178,-1.2238,-1.0437,0.8763,-0.50857,1.4322,-0.27894,-0.64754
0.14461,-0.52773,0.22127,1.5434,1.0628,-0.77656,0.46062,-1.0005
-0.56521,1.1071,-0.05102,-0.50798
0.50345,-1.2261,-1.0437,0.87595,-0.51007,1.4323,-0.27668,-0.64734
0.1442,-0.52702,0.22092,1.5434,1.0644,-0.77663,0.46157,-1.0006
-0.56495,1.1147,-0.060061,-0.50912
0.50274,-1.2243,-1.0437,0.87598,-0.5089,1.4324,-0.27807,-0.64687
0.14464,-0.53062,0.22041,1.5434,1.0607,-0.77668,0.46249,-0.99853
-0.55868,1.117,-0.070847,-0.50997
0.50566,-1.2286,-1.0437,0.87536,-0.51165,1.4325,-0.2737,-0.64715
0.1438,-0.52709,0.22169,1.544,1.0643,-0.77665,0.46182,-1.0016
-0.56636,1.108,-0.059801,-0.5032
0.50667,-1.2298,-1.0437,0.87515,-0.51267,1.4326,-0.2725,-0.64697
0.14433,-0.52866,0.22188,1.5442,1.0637,-0.7767,0.46177,-1.0018
-0.55744,1.0953,-0.048506,-0.50998
0.50719,-1.2306,-1.0437,0.8751,-0.51331,1.4327,-0.27171,-0.64687
0.14411,-0.53081,0.22118,1.5441,1.0632,-0.77677,0.46276,-1.0005
-0.55024,1.103,-0.058554,-0.51291
0.51083,-1.2363,-1.0437,0.87438,-0.51704,1.4328,-0.26586,-0.64719
0.14208,-0.52524,0.22126,1.5442,1.0697,-0.77681,0.46353,-1.0031
-0.56259,1.1201,-0.070197,-0.50572
0.51235,-1.2383,-1.0437,0.87411,-0.51839,1.4329,-0.26352,-0.64728
0.14199,-0.5242,0.22277,1.5449,1.07,-0.77672,0.46264,-1.005
-0.57002,1.1069,-0.061724,-0.49387
0.51611,-1.2438,-1.0437,0.87357,-0.52197,1.4331,-0.25801,-0.64715
0.14106,-0.51902,0.22255,1.5448,1.0763,-0.77683,0.46355,-1.0074
-0.57501,1.1169,-0.06505,-0.4986
0.51475,-1.2408,-1.0437,0.87351,-0.51987,1.4331,-0.26091,-0.64671
0.14196,-0.52441,0.22279,1.5452,1.0704,-0.77684,0.46372,-1.0054
-0.56627,1.1056,-0.064094,-0.49803
0.51831,-1.2466,-1.0437,0.87292,-0.52376,1.4333,-0.25547,-0.64697
0.14083,-0.52037,0.22305,1.5453,1.0763,-0.77689,0.46404,-1.0079
-0.56983,1.1097,-0.061172,-0.49891
0.52075,-1.2507,-1.0437,0.87266,-0.52678,1.4334,-0.25128,-0.64722
0.13999,-0.5183,0.22352,1.5456,1.0796,-0.77689,0.46419,-1.0093
-0.57426,1.1129,-0.063586,-0.49291
0.52025,-1.2491,-1.0437,0.87261,-0.52562,1.4335,-0.25262,-0.64657
0.14071,-0.52156,0.22287,1.5456,1.0759,-0.77696,0.46524,-1.0071
-0.56662,1.1137,-0.073583,-0.49734
0.52112,-1.2495,-1.0437,0.87243,-0.52597,1.4335,-0.25174,-0.6464
0.14131,-0.52229,0.22411,1.5462,1.0746,-0.77693,0.46434,-1.0086
-0.56661,1.0939,-0.056738,-0.49419
0.52226,-1.2514,-1.0437,0.87228,-0.52733,1.4336,-0.24983,-0.64638
0.14057,-0.52279,0.22338,1.5461,1.0758,-0.777,0.46552,-1.0079
-0.56332,1.1078,-0.070583,-0.4953
0.52167,-1.2493,-1.0437,0.87212,-0.5257,1.4337,-0.25167,-0.64579
0.14172,-0.52597,0.22398,1.5465,1.0712,-0.77699,0.46544,-1.007
-0.55969,1.0931,-0.066711,-0.49341
0.5238,-1.2524,-1.0437,0.87149,-0.52766,1.4338,-0.24896,-0.64597
0.14119,-0.52488,0.22451,1.5468,1.0737,-0.77701,0.46532,-1.0086
-0.55962,1.0889,-0.058801,-0.49289
0.5261,-1.2557,-1.0436,0.87117,-0.52993,1.4339,-0.24527,-0.64601
0.14058,-0.52228,0.2251,1.5471,1.0764,-0.777,0.46534,-1.0103
-0.56714,1.0903,-0.060968,-0.48561
0.5293,-1.2608,-1.0436,0.87057,-0.53344,1.4341,-0.24055,-0.64617
0.13967,-0.51948,0.22471,1.5471,1.0815,-0.77711,0.46599,-1.012
-0.5645,1.0964,-0.059167,-0.49259
0.52913,-1.2601,-1.0436,0.87053,-0.53311,1.4342,-0.24136,-0.64569
0.14032,-0.5231,0.22358,1.5469,1.0793,-0.77723,0.46733,-1.0095
-0.55135,1.1017,-0.069295,-0.5024
0.53229,-1.2652,-1.0436,0.87005,-0.53645,1.4343,-0.23613,-0.64603
0.13882,-0.51848,0.22438,1.5473,1.0843,-0.77719,0.46737,-1.0122
-0.56501,1.1096,-0.074883,-0.49045
0.53305,-1.2655,-1.0436,0.86991,-0.53654,1.4344,-0.23552,-0.64558
0.13968,-0.51932,0.22508,1.5476,1.0825,-0.77718,0.46713,-1.0125
-0.56356,1.0953,-0.067529,-0.48998
0.53459,-1.2679,-1.0436,0.86968,-0.53819,1.4345,-0.23301,-0.64561
0.13915,-0.51875,0.22513,1.5478,1.0839,-0.77721,0.46751,-1.0131
-0.56429,1.0987,-0.071069,-0.48768
0.53534,-1.2691,-1.0436,0.86945,-0.53901,1.4346,-0.23165,-0.64556
0.13846,-0.51948,0.22469,1.5479,1.0839,-0.77726,0.46851,-1.0121
-0.56243,1.1085,-0.084372,-0.48626
0.53891,-1.2735,-1.0436,0.86875,-0.54162,1.4347,-0.22782,-0.6452
0.13914,-0.5156,0.22581,1.5482,1.0878,-0.7773,0.46773,-1.016
-0.56329,1.087,-0.057475,-0.49471
0.53997,-1.2751,-1.0436,0.86848,-0.54286,1.4349,-0.2266,-0.64496
0.13964,-0.51698,0.22545,1.5482,1.0879,-0.77736,0.46837,-1.0151
-0.55606,1.0871,-0.060788,-0.49886
0.54048,-1.2755,-1.0436,0.86845,-0.54322,1.4349,-0.22572,-0.64495
0.13986,-0.5175,0.22671,1.5488,1.0867,-0.77725,0.46769,-1.0159
-0.56425,1.0797,-0.059981,-0.48376
0.54124,-1.2768,-1.0436,0.86825,-0.54424,1.435,-0.22406,-0.64514
0.13868,-0.51837,0.22621,1.5488,1.0871,-0.77731,0.46858,-1.0153
-0.56208,1.0921,-0.071998,-0.48173
0.5421,-1.2776,-1.0436,0.86786,-0.54464,1.4351,-0.2231,-0.64495
0.13861,-0.51863,0.22659,1.5492,1.0865,-0.77732,0.46878,-1.0156
-0.56293,1.0893,-0.072814,-0.47885
0.54194,-1.277,-1.0436,0.86786,-0.5443,1.4351,-0.22331,-0.64481
0.13864,-0.52148,0.22636,1.5493,1.0842,-0.77735,0.46929,-1.0143
-0.55708,1.0903,-0.078362,-0.47843
0.54503,-1.282,-1.0436,0.86753,-0.54774,1.4352,-0.21827,-0.64511
0.13749,-0.5181,0.22655,1.5495,1.0892,-0.77736,0.4696,-1.0162
-0.56292,1.0988,-0.082466,-0.47395
0.54716,-1.2848,-1.0436,0.8672,-0.54947,1.4353,-0.21522,-0.64498
0.13729,-0.51569,0.22749,1.5499,1.0908,-0.77734,0.46933,-1.0181
-0.57012,1.0923,-0.078654,-0.46809
0.54987,-1.2889,-1.0436,0.86673,-0.55231,1.4355,-0.21143,-0.64491
0.13699,-0.51405,0.22722,1.5499,1.0942,-0.77744,0.46981,-1.0194
-0.56432,1.0913,-0.072564,-0.47708
0.5527,-1.2926,-1.0436,0.8663,-0.55472,1.4356,-0.20814,-0.64457
0.13755,-0.51167,0.22757,1.55,1.0976,-0.7775,0.46985,-1.0214
-0.56302,1.0836,-0.061524,-0.48393
0.55289,-1.2927,-1.0436,0.86603,-0.55463,1.4357,-0.20828,-0.64439
0.13733,-0.51388,0.22686,1.55,1.0964,-0.77757,0.47095,-1.0197
-0.5571,1.0932,-0.074318,-0.48599
0.55436,-1.295,-1.0436,0.86583,-0.55644,1.4359,-0.20606,-0.64436
0.13717,-0.51431,0.22644,1.55,1.0978,-0.77763,0.4717,-1.0193
-0.5521,1.0992,-0.080253,-0.48871
0.55527,-1.296,-1.0436,0.86564,-0.55712,1.436,-0.20483,-0.6441
0.13711,-0.51456,0.22614,1.55,1.0978,-0.77768,0.47253,-1.0186
-0.55089,1.1054,-0.090469,-0.48909
0.55752,-1.299,-1.0436,0.86528,-0.5589,1.436,-0.20181,-0.64388
0.13755,-0.51246,0.22767,1.5506,1.0989,-0.77763,0.4715,-1.0215
-0.55546,1.0839,-0.070199,-0.48627
0.55725,-1.2984,-1.0436,0.86529,-0.55867,1.436,-0.20183,-0.64384
0.13768,-0.51477,0.22835,1.551,1.0961,-0.77758,0.47124,-1.0211
-0.55514,1.0762,-0.069427,-0.47856
0.55955,-1.3014,-1.0436,0.86499,-0.56054,1.4361,-0.19883,-0.64367
0.13804,-0.51199,0.22978,1.5515,1.0981,-0.77751,0.47047,-1.0236
-0.56573,1.0648,-0.060776,-0.46926
0.56138,-1.304,-1.0435,0.86467,-0.56243,1.4362,-0.19624,-0.6436
0.13776,-0.51113,0.2296,1.5516,1.1,-0.77755,0.47103,-1.024
-0.56581,1.0708,-0.066699,-0.46872
0.56035,-1.3021,-1.0435,0.86471,-0.56125,1.4363,-0.19771,-0.64334
0.13814,-0.51491,0.22945,1.5518,1.096,-0.77755,0.47154,-1.0218
-0.5617,1.0714,-0.077006,-0.46476
0.56351,-1.3072,-1.0435,0.86425,-0.56472,1.4364,-0.19302,-0.64365
0.1372,-0.51178,0.22982,1.552,1.101,-0.77758,0.47151,-1.0243
-0.56484,1.0736,-0.071544,-0.46393
0.56489,-1.3094,-1.0435,0.86396,-0.56644,1.4365,-0.19067,-0.6436
0.13643,-0.51206,0.22855,1.5518,1.1026,-0.7777,0.47294,-1.0232
-0.55697,1.0891,-0.085599,-0.4713
0.56562,-1.3095,-1.0435,0.86372,-0.56616,1.4366,-0.19069,-0.643
0.13771,-0.51297,0.22929,1.5521,1.101,-0.77772,0.4726,-1.0241
-0.55272,1.0704,-0.070438,-0.47628
0.56941,-1.3152,-1.0435,0.86309,-0.5698,1.4368,-0.18542,-0.64315
0.13701,-0.50797,0.2305,1.5525,1.1064,-0.77767,0.47212,-1.0276
-0.56549,1.0684,-0.064941,-0.46729
0.56846,-1.3132,-1.0435,0.86304,-0.56842,1.4368,-0.1873,-0.64275
0.13753,-0.51171,0.22984,1.5525,1.1029,-0.77773,0.47312,-1.025
-0.55808,1.0739,-0.078064,-0.46927
0.57262,-1.3198,-1.0435,0.86241,-0.57269,1.437,-0.18114,-0.64304
0.1364,-0.50624,0.23082,1.5529,1.1093,-0.77771,0.47275,-1.0289
-0.5689,1.0736,-0.070877,-0.46334
0.57312,-1.3201,-1.0435,0.86227,-0.57288,1.4371,-0.18065,-0.64274
0.13685,-0.50716,0.23119,1.5532,1.108,-0.7777,0.47291,-1.0285
-0.5706,1.0707,-0.074555,-0.45807
0.57406,-1.3211,-1.0435,0.86222,-0.57371,1.4371,-0.1794,-0.64238
0.13735,-0.50787,0.23089,1.5532,1.1079,-0.77776,0.47345,-1.0281
-0.56495,1.07,-0.075995,-0.46329
0.57709,-1.326,-1.0435,0.86173,-0.57713,1.4373,-0.1748,-0.64255
0.13663,-0.50523,0.23105,1.5533,1.1122,-0.7778,0.47361,-1.0301
-0.56549,1.0722,-0.072109,-0.46433
0.57636,-1.3244,-1.0435,0.8617,-0.57615,1.4373,-0.17619,-0.64226
0.13748,-0.5089,0.23129,1.5536,1.1085,-0.77779,0.47368,-1.0286
-0.55958,1.0644,-0.07203,-0.46288
0.57839,-1.3273,-1.0435,0.86135,-0.57799,1.4375,-0.17345,-0.64217
0.13749,-0.50707,0.23215,1.554,1.1102,-0.77775,0.47346,-1.03
-0.56714,1.061,-0.071628,-0.455
0.58019,-1.3297,-1.0435,0.86106,-0.57966,1.4375,-0.17087,-0.64218
0.13744,-0.50605,0.23315,1.5545,1.1114,-0.77772,0.47288,-1.0319
-0.57035,1.051,-0.060769,-0.4505
0.5832,-1.3338,-1.0435,0.86046,-0.58221,1.4377,-0.16722,-0.64183
0.13751,-0.50249,0.23337,1.5546,1.1153,-0.77776,0.47325,-1.0337
-0.57629,1.0533,-0.062408,-0.45044
0.58211,-1.3321,-1.0435,0.8603,-0.58127,1.4378,-0.16919,-0.64159
0.13804,-0.5079,0.23217,1.5544,1.1116,-0.77787,0.47436,-1.0306
-0.55792,1.0563,-0.069643,-0.46103
0.58362,-1.3344,-1.0434,0.86003,-0.58287,1.438,-0.16683,-0.64148
0.13751,-0.507,0.23143,1.5543,1.1134,-0.77794,0.47538,-1.0302
-0.5564,1.0691,-0.082906,-0.46337
0.5853,-1.3371,-1.0435,0.85991,-0.5848,1.438,-0.16396,-0.6417
0.13679,-0.50651,0.23141,1.5544,1.1156,-0.77797,0.47564,-1.031
-0.55524,1.0746,-0.083851,-0.46226
0.58915,-1.3428,-1.0435,0.85933,-0.58846,1.4382,-0.15898,-0.64158
0.13678,-0.50248,0.23205,1.5546,1.1208,-0.77801,0.47542,-1.0342
-0.55702,1.0669,-0.069597,-0.46683
0.59005,-1.3441,-1.0434,0.85917,-0.58944,1.4383,-0.15753,-0.64134
0.13675,-0.50283,0.23149,1.5546,1.121,-0.77806,0.47638,-1.0331
-0.55408,1.0754,-0.082287,-0.46836
0.58965,-1.3436,-1.0434,0.85928,-0.58931,1.4383,-0.15708,-0.64152
0.13581,-0.50461,0.23134,1.5548,1.119,-0.77804,0.47703,-1.0315
-0.55694,1.0886,-0.10069,-0.45787
0.58935,-1.3424,-1.0434,0.85928,-0.58831,1.4383,-0.15803,-0.64098
0.1369,-0.50729,0.23182,1.5551,1.1155,-0.77804,0.4769,-1.0311
-0.55033,1.0726,-0.091451,-0.46142
0.58915,-1.3415,-1.0434,0.85924,-0.58741,1.4383,-0.15886,-0.64065
0.13788,-0.50903,0.23294,1.5556,1.1124,-0.77797,0.47629,-1.0312
-0.55375,1.0581,-0.08576,-0.45307
0.5927,-1.3467,-1.0434,0.85866,-0.59082,1.4385,-0.15424,-0.64064
0.13778,-0.50531,0.23372,1.5559,1.1173,-0.77797,0.47588,-1.0343
-0.55854,1.0517,-0.074252,-0.45276
0.59548,-1.3506,-1.0434,0.85799,-0.59315,1.4386,-0.15123,-0.64046
0.1379,-0.5032,0.23396,1.556,1.1206,-0.77802,0.47599,-1.0361
-0.55784,1.0485,-0.067418,-0.45711
0.59623,-1.3519,-1.0434,0.85768,-0.59415,1.4388,-0.14981,-0.6405
0.13702,-0.50419,0.23269,1.5558,1.1212,-0.77813,0.47736,-1.0345
-0.55023,1.0659,-0.084421,-0.46216
0.59843,-1.3552,-1.0434,0.85748,-0.59649,1.4388,-0.14633,-0.64055
0.13683,-0.50206,0.23363,1.5561,1.1234,-0.77808,0.47692,-1.0364
-0.55725,1.0613,-0.079942,-0.45465
0.60019,-1.3579,-1.0434,0.85728,-0.5984,1.4389,-0.14394,-0.64038
0.13743,-0.5015,0.23434,1.5565,1.1244,-0.77806,0.47662,-1.0374
-0.55828,1.0519,-0.073097,-0.45228
0.60049,-1.3579,-1.0434,0.85719,-0.59823,1.439,-0.14386,-0.64009
0.13809,-0.50278,0.23489,1.5568,1.123,-0.77803,0.4765,-1.0374
-0.55796,1.0447,-0.06995,-0.44921
0.60143,-1.3591,-1.0434,0.85698,-0.59901,1.4391,-0.14239,-0.63997
0.13766,-0.50239,0.23464,1.5569,1.1234,-0.77806,0.47718,-1.0371
-0.56043,1.0541,-0.082579,-0.4461
0.60204,-1.3597,-1.0434,0.85679,-0.59931,1.4391,-0.14191,-0.63967
0.13816,-0.50379,0.2346,1.557,1.1224,-0.7781,0.47744,-1.0367
-0.55336,1.0479,-0.078898,-0.45142
0.60412,-1.3629,-1.0434,0.85653,-0.60146,1.4392,-0.1383,-0.6399
0.13687,-0.50085,0.2348,1.5572,1.1254,-0.77807,0.47784,-1.0378
-0.56672,1.0643,-0.095663,-0.43808
0.60567,-1.3651,-1.0434,0.85632,-0.603,1.4393,-0.13599,-0.63978
0.13689,-0.50013,0.23521,1.5574,1.1264,-0.77807,0.47783,-1.0387
-0.56775,1.0612,-0.093102,-0.43619
0.60534,-1.3643,-1.0434,0.85626,-0.60228,1.4394,-0.13689,-0.63953
0.13731,-0.50279,0.23501,1.5576,1.124,-0.77811,0.47831,-1.0373
-0.56082,1.0597,-0.096252,-0.43914
0.60798,-1.3678,-1.0434,0.85586,-0.60452,1.4395,-0.13378,-0.63924
0.13773,-0.50088,0.23541,1.5577,1.1268,-0.77815,0.47811,-1.0396
-0.55867,1.0494,-0.082053,-0.44537
0.61184,-1.3738,-1.0434,0.85531,-0.60854,1.4396,-0.12851,-0.63929
0.1374,-0.49704,0.23586,1.5578,1.1324,-0.77819,0.47793,-1.0426
-0.56007,1.046,-0.070617,-0.44869
0.61278,-1.3755,-1.0434,0.85512,-0.60979,1.4397,-0.12664,-0.63947
0.1365,-0.49718,0.23551,1.5579,1.133,-0.77821,0.47861,-1.042
-0.56054,1.0589,-0.084242,-0.44453
0.613,-1.3749,-1.0434,0.855,-0.60918,1.4398,-0.12732,-0.6389
0.13803,-0.49883,0.23634,1.5583,1.1308,-0.77819,0.47818,-1.0423
-0.55822,1.0415,-0.072485,-0.4451
0.61404,-1.3763,-1.0434,0.85487,-0.61002,1.4398,-0.12604,-0.63879
0.13858,-0.49877,0.23771,1.5588,1.1306,-0.7781,0.47744,-1.0435
-0.56508,1.03,-0.064762,-0.43494
0.61732,-1.3814,-1.0434,0.8541,-0.61339,1.44,-0.12158,-0.63876
0.1374,-0.49556,0.23631,1.5585,1.1359,-0.77826,0.47894,-1.0441
-0.55942,1.049,-0.07712,-0.44717
0.61812,-1.3825,-1.0433,0.85404,-0.61438,1.4402,-0.12031,-0.63847
0.13791,-0.49631,0.23593,1.5584,1.1358,-0.7783,0.4796,-1.0431
-0.55494,1.0521,-0.084695,-0.44963
0.61776,-1.3817,-1.0433,0.85407,-0.61376,1.4402,-0.12089,-0.63818
0.13882,-0.49843,0.23676,1.5589,1.1328,-0.77823,0.47924,-1.0425
-0.55711,1.0419,-0.083306,-0.44141
0.61845,-1.3826,-1.0433,0.8539,-0.61436,1.4402,-0.11997,-0.63811
0.13907,-0.49907,0.23739,1.5592,1.1322,-0.7782,0.47901,-1.0428
-0.559,1.0362,-0.080758,-0.43583
0.6189,-1.3832,-1.0433,0.85381,-0.61478,1.4403,-0.11894,-0.63802
0.13863,-0.49962,0.23686,1.5592,1.1319,-0.77824,0.4798,-1.0419
-0.55705,1.0464,-0.093061,-0.43587
0.62267,-1.3891,-1.0433,0.85333,-0.61864,1.4404,-0.11337,-0.63821
0.13754,-0.49495,0.23732,1.5594,1.1375,-0.77825,0.47983,-1.0448
-0.56599,1.0525,-0.093326,-0.4315
0.62396,-1.3906,-1.0433,0.85307,-0.61973,1.4405,-0.11206,-0.63782
0.13825,-0.49506,0.2371,1.5594,1.1382,-0.7783,0.48026,-1.0447
-0.56076,1.0501,-0.092601,-0.43753
0.62355,-1.3897,-1.0433,0.85304,-0.61893,1.4406,-0.11321,-0.63752
0.13917,-0.49818,0.23736,1.5597,1.1353,-0.77831,0.48022,-1.0439
-0.55354,1.0394,-0.086736,-0.4397
0.62759,-1.3958,-1.0433,0.85244,-0.62283,1.4407,-0.10785,-0.63757
0.13864,-0.49367,0.23798,1.5599,1.1412,-0.77833,0.47991,-1.0475
-0.5582,1.0367,-0.074769,-0.44087
0.62889,-1.3971,-1.0433,0.85219,-0.62378,1.4409,-0.10671,-0.63708
0.13972,-0.49373,0.23799,1.5599,1.1417,-0.77837,0.48016,-1.0476
-0.55467,1.0315,-0.072471,-0.44525
0.62873,-1.3968,-1.0433,0.85208,-0.62346,1.4409,-0.10724,-0.63684
0.14045,-0.49619,0.23795,1.56,1.1396,-0.77838,0.48042,-1.0463
-0.5486,1.0278,-0.074183,-0.44635
0.629,-1.3973,-1.0433,0.85204,-0.62387,1.441,-0.10631,-0.63705
0.13979,-0.49653,0.23823,1.5603,1.1391,-0.77832,0.48062,-1.0457
-0.55636,1.0378,-0.088849,-0.43353
0.62981,-1.3986,-1.0433,0.85183,-0.62472,1.441,-0.10482,-0.63715
0.13931,-0.49689,0.23847,1.5606,1.139,-0.77831,0.4807,-1.046
-0.55713,1.0398,-0.090955,-0.42904
0.63422,-1.4051,-1.0433,0.85116,-0.62888,1.4412,-0.099071,-0.63695
0.13899,-0.49176,0.23871,1.5606,1.1454,-0.77838,0.48084,-1.0493
-0.55987,1.0389,-0.082474,-0.43517
0.6355,-1.407,-1.0433,0.85096,-0.63016,1.4413,-0.097341,-0.63682
0.13916,-0.49152,0.23899,1.5608,1.1461,-0.77838,0.48089,-1.0498
-0.56009,1.037,-0.081579,-0.43391
0.63571,-1.4074,-1.0433,0.85092,-0.63055,1.4414,-0.096588,-0.63673
0.13916,-0.49252,0.23895,1.561,1.1451,-0.77837,0.48136,-1.0486
-0.56099,1.0426,-0.092992,-0.42881
0.63737,-1.4098,-1.0433,0.85071,-0.632,1.4414,-0.094526,-0.6367
0.1392,-0.49153,0.24002,1.5615,1.1463,-0.77833,0.48073,-1.0508
-0.56636,1.0334,-0.08211,-0.42338
0.63984,-1.4133,-1.0433,0.85035,-0.6343,1.4416,-0.091411,-0.63646
0.1393,-0.48974,0.23968,1.5614,1.1494,-0.7784,0.48124,-1.0517
-0.56301,1.0364,-0.082102,-0.42992
0.64076,-1.4139,-1.0433,0.85022,-0.63461,1.4416,-0.091183,-0.63584
0.14111,-0.49063,0.24047,1.5616,1.1486,-0.77839,0.48079,-1.0524
-0.55878,1.017,-0.066178,-0.43407
0.64024,-1.4133,-1.0433,0.85012,-0.6343,1.4417,-0.091443,-0.63581
0.14079,-0.493,0.23949,1.5615,1.1466,-0.77845,0.48187,-1.0499
-0.5524,1.0302,-0.085055,-0.43523
0.64162,-1.4154,-1.0432,0.84981,-0.63551,1.4418,-0.089514,-0.63576
0.14059,-0.4921,0.23991,1.5618,1.1474,-0.77842,0.48195,-1.0504
-0.55726,1.0319,-0.089376,-0.42923
0.64123,-1.4146,-1.0432,0.84983,-0.63474,1.4418,-0.089963,-0.63565
0.1409,-0.49388,0.24075,1.5622,1.1448,-0.77835,0.48158,-1.0503
-0.56071,1.0249,-0.087535,-0.42042
0.64584,-1.4216,-1.0432,0.84906,-0.63917,1.442,-0.083801,-0.6357
0.13994,-0.48812,0.2411,1.5623,1.1518,-0.77839,0.48166,-1.0538
-0.56929,1.0305,-0.084951,-0.41963
0.64634,-1.422,-1.0432,0.84886,-0.63932,1.4421,-0.083781,-0.63523
0.14113,-0.48969,0.24118,1.5624,1.1506,-0.77842,0.48179,-1.0534
-0.56156,1.0202,-0.078641,-0.42587
0.64681,-1.4223,-1.0432,0.84884,-0.63946,1.4421,-0.08327,-0.63514
0.14147,-0.48986,0.24212,1.5629,1.1499,-0.77833,0.48144,-1.0538
-0.57134,1.019,-0.082152,-0.41258
0.6516,-1.4297,-1.0432,0.84821,-0.64463,1.4423,-0.076605,-0.63507
0.14069,-0.48451,0.24134,1.5626,1.1577,-0.77846,0.48225,-1.0563
-0.56909,1.0301,-0.083371,-0.42391
0.64951,-1.4267,-1.0432,0.84842,-0.64279,1.4423,-0.079366,-0.63494
0.1412,-0.49025,0.24041,1.5625,1.1528,-0.77853,0.48309,-1.0527
-0.55242,1.0322,-0.0919,-0.43134
0.65009,-1.4274,-1.0432,0.84829,-0.64312,1.4424,-0.078822,-0.63476
0.14163,-0.49092,0.24069,1.5627,1.1522,-0.77852,0.48314,-1.0526
-0.55228,1.0291,-0.092213,-0.42976
0.65088,-1.4284,-1.0432,0.84796,-0.64351,1.4425,-0.078006,-0.63477
0.14113,-0.49128,0.24047,1.5628,1.1524,-0.77856,0.4836,-1.0525
-0.55018,1.035,-0.097323,-0.43055
0.65225,-1.4306,-1.0432,0.84799,-0.64497,1.4425,-0.075704,-0.63478
0.14144,-0.49016,0.24202,1.5634,1.1529,-0.77843,0.48267,-1.0542
-0.56267,1.0253,-0.091196,-0.41519
0.65688,-1.4377,-1.0432,0.84731,-0.64965,1.4427,-0.069395,-0.63475
0.14059,-0.48479,0.24184,1.5633,1.1599,-0.77851,0.48305,-1.0573
-0.56454,1.0316,-0.088429,-0.4215
0.65771,-1.4385,-1.0432,0.84715,-0.65006,1.4428,-0.06899,-0.63424
0.14203,-0.48572,0.24261,1.5636,1.1591,-0.7785,0.48265,-1.058
-0.56175,1.0147,-0.075025,-0.42343
0.65742,-1.438,-1.0432,0.84717,-0.64983,1.4428,-0.069144,-0.63404
0.14224,-0.48775,0.24185,1.5635,1.1575,-0.77856,0.48355,-1.056
-0.55412,1.0224,-0.087387,-0.42745
0.66073,-1.443,-1.0432,0.84667,-0.65311,1.443,-0.06458,-0.63407
0.14185,-0.48412,0.24252,1.5638,1.1618,-0.77853,0.48325,-1.0587
-0.56216,1.0218,-0.082467,-0.42261
0.66224,-1.4451,-1.0432,0.84647,-0.65437,1.4431,-0.062744,-0.63387
0.14196,-0.4827,0.2427,1.5639,1.1633,-0.77853,0.48358,-1.0589
-0.56794,1.0272,-0.091488,-0.41826
0.66319,-1.4466,-1.0432,0.84614,-0.65518,1.4432,-0.061333,-0.63389
0.14135,-0.4823,0.24238,1.564,1.164,-0.77856,0.48422,-1.0584
-0.56934,1.0383,-0.1037,-0.41592
0.66307,-1.4459,-1.0432,0.84611,-0.6543,1.4432,-0.062642,-0.63319
0.14329,-0.48507,0.24317,1.5643,1.1611,-0.77856,0.48365,-1.0591
-0.56006,1.0119,-0.080807,-0.42371
0.66178,-1.444,-1.0432,0.84635,-0.65329,1.4432,-0.063907,-0.63306
0.14396,-0.48851,0.24312,1.5644,1.1574,-0.77853,0.48396,-1.0566
-0.55605,1.0122,-0.090319,-0.41954
0.66284,-1.4458,-1.0432,0.84627,-0.65456,1.4432,-0.062268,-0.63318
0.14371,-0.4892,0.24312,1.5646,1.1582,-0.77856,0.48397,-1.0572
-0.55054,1.0112,-0.08479,-0.42216
0.66382,-1.4472,-1.0431,0.84605,-0.65545,1.4433,-0.061139,-0.63309
0.14381,-0.48968,0.24306,1.5646,1.1586,-0.77859,0.48414,-1.0573
-0.54529,1.0092,-0.081985,-0.42631
0.66545,-1.4496,-1.0432,0.8457,-0.65676,1.4434,-0.059298,-0.63299
0.14373,-0.48921,0.2428,1.5646,1.1604,-0.77865,0.48452,-1.0579
-0.53948,1.0105,-0.07989,-0.43304
0.66896,-1.455,-1.0431,0.84522,-0.66052,1.4435,-0.054044,-0.63303
0.14275,-0.4846,0.24246,1.5645,1.1657,-0.77869,0.48517,-1.0594
-0.54719,1.0262,-0.093176,-0.43107
0.67146,-1.4589,-1.0431,0.84507,-0.66324,1.4436,-0.050116,-0.63304
0.1427,-0.48187,0.2436,1.565,1.1684,-0.77861,0.48459,-1.0616
-0.55929,1.0227,-0.08985,-0.41937
0.67003,-1.4563,-1.0431,0.84506,-0.66108,1.4436,-0.052638,-0.63269
0.14364,-0.48509,0.24405,1.5653,1.164,-0.77857,0.48465,-1.0598
-0.55899,1.0171,-0.094499,-0.41408
0.67146,-1.4585,-1.0431,0.84488,-0.66244,1.4437,-0.050943,-0.63246
0.14428,-0.48503,0.24463,1.5655,1.1647,-0.77856,0.48435,-1.061
-0.55771,1.0069,-0.084048,-0.41465
0.67386,-1.462,-1.0431,0.84453,-0.66469,1.4438,-0.047762,-0.63237
0.14407,-0.48302,0.24507,1.5657,1.1673,-0.77857,0.48421,-1.063
-0.55915,1.0033,-0.076558,-0.41577
0.67669,-1.466,-1.0431,0.84402,-0.66709,1.444,-0.044864,-0.63193
0.14506,-0.48077,0.2456,1.5659,1.1705,-0.77859,0.48407,-1.0649
-0.56021,0.99406,-0.066879,-0.41897
0.67577,-1.4646,-1.0431,0.84417,-0.6663,1.444,-0.045483,-0.63182
0.14537,-0.48268,0.24576,1.5661,1.1676,-0.77853,0.48434,-1.063
-0.56446,0.9995,-0.081872,-0.40865
0.67575,-1.4646,-1.0431,0.84401,-0.66631,1.4441,-0.04559,-0.6317
0.14555,-0.48439,0.24513,1.566,1.1666,-0.77858,0.48506,-1.0612
-0.55736,1.0056,-0.091985,-0.4124
0.67856,-1.469,-1.0431,0.84366,-0.66923,1.4442,-0.041662,-0.63184
0.14484,-0.48156,0.24541,1.5662,1.1706,-0.77858,0.48501,-1.0634
-0.56273,1.0102,-0.090496,-0.40942
0.67905,-1.4698,-1.0431,0.8435,-0.66967,1.4442,-0.041025,-0.63184
0.14467,-0.48275,0.24496,1.5662,1.1704,-0.77863,0.48549,-1.0628
-0.55621,1.0149,-0.094432,-0.41324
0.68171,-1.4739,-1.0431,0.84328,-0.67248,1.4443,-0.037169,-0.63175
0.14458,-0.48011,0.24559,1.5664,1.1734,-0.77861,0.48528,-1.0648
-0.56143,1.0118,-0.089971,-0.41035
0.68143,-1.4732,-1.0431,0.84305,-0.67167,1.4444,-0.038267,-0.63139
0.14522,-0.48237,0.24479,1.5662,1.1717,-0.7787,0.48613,-1.0629
-0.5495,1.0134,-0.095816,-0.42038
0.68174,-1.4738,-1.043,0.84311,-0.67222,1.4444,-0.036893,-0.63161
0.1446,-0.4823,0.24522,1.5666,1.1712,-0.77862,0.48613,-1.0625
-0.55941,1.0227,-0.10854,-0.40594
0.68274,-1.4748,-1.0431,0.84292,-0.67241,1.4445,-0.0366,-0.63117
0.14572,-0.48275,0.24618,1.5669,1.1709,-0.7786,0.48554,-1.0641
-0.5594,1.0054,-0.091986,-0.40668
0.68557,-1.479,-1.043,0.84253,-0.67517,1.4446,-0.033306,-0.63088
0.14616,-0.48086,0.24616,1.5669,1.1744,-0.77867,0.48565,-1.066
-0.55371,0.99963,-0.081462,-0.41639
0.68653,-1.4806,-1.043,0.8424,-0.67608,1.4446,-0.031723,-0.63094
0.14574,-0.48042,0.24647,1.5671,1.1748,-0.77864,0.4857,-1.0664
-0.55815,1.0033,-0.086103,-0.41061
0.68629,-1.48,-1.043,0.84232,-0.67541,1.4447,-0.032385,-0.63071
0.14631,-0.48174,0.2473,1.5675,1.1726,-0.77858,0.48537,-1.0664
-0.56316,0.99593,-0.084561,-0.40279
0.69051,-1.4864,-1.043,0.84176,-0.67965,1.4449,-0.026535,-0.63073
0.14549,-0.47634,0.24758,1.5676,1.1788,-0.77859,0.48549,-1.0693
-0.57324,1.0038,-0.087634,-0.39985
0.69182,-1.4883,-1.043,0.84158,-0.68089,1.4449,-0.02484,-0.63053
0.14586,-0.47605,0.24772,1.5677,1.1797,-0.7786,0.48556,-1.0698
-0.5719,1.0015,-0.084997,-0.40057
0.69141,-1.4878,-1.043,0.8416,-0.68068,1.445,-0.025271,-0.63039
0.14601,-0.4785,0.2464,1.5674,1.1783,-0.77871,0.48677,-1.067
-0.55745,1.0118,-0.099069,-0.41142
0.69311,-1.4903,-1.043,0.84152,-0.6821,1.445,-0.023349,-0.63019
0.14678,-0.47786,0.24778,1.5679,1.1794,-0.77864,0.48583,-1.0695
-0.56286,0.99564,-0.080881,-0.40566
0.69206,-1.4886,-1.043,0.84148,-0.68086,1.4451,-0.025013,-0.62998
0.14736,-0.48109,0.24724,1.5679,1.1764,-0.77868,0.48648,-1.0671
-0.55332,0.99779,-0.089418,-0.41009
0.69163,-1.488,-1.043,0.84159,-0.68027,1.445,-0.025799,-0.62983
0.14814,-0.48354,0.24805,1.5682,1.1739,-0.77862,0.48599,-1.067
-0.5519,0.98549,-0.081153,-0.40636
0.69498,-1.493,-1.043,0.84102,-0.68355,1.4452,-0.021547,-0.62967
0.14797,-0.48011,0.24805,1.5682,1.1785,-0.77867,0.4862,-1.0691
-0.55295,0.98701,-0.078572,-0.41071
0.69871,-1.4986,-1.043,0.84034,-0.68728,1.4454,-0.016849,-0.6296
0.14757,-0.47649,0.24762,1.5681,1.1841,-0.77875,0.4867,-1.0709
-0.5508,0.99391,-0.078384,-0.41805
0.70043,-1.5011,-1.043,0.8402,-0.68881,1.4455,-0.014701,-0.62929
0.14815,-0.47548,0.24788,1.5682,1.1856,-0.77876,0.48676,-1.0718
-0.55028,0.98992,-0.074773,-0.42006
0.70045,-1.501,-1.043,0.84003,-0.6885,1.4455,-0.014765,-0.62927
0.14812,-0.47598,0.24838,1.5685,1.1845,-0.7787,0.48673,-1.0714
-0.55838,0.99374,-0.083657,-0.40954
0.69961,-1.5001,-1.043,0.84014,-0.68805,1.4456,-0.015095,-0.62941
0.14792,-0.47804,0.24802,1.5686,1.1822,-0.77869,0.48729,-1.069
-0.55848,1.0051,-0.10208,-0.40277
0.70136,-1.5025,-1.043,0.83982,-0.68917,1.4456,-0.013503,-0.62911
0.14829,-0.47697,0.2488,1.5689,1.1834,-0.77868,0.48691,-1.0711
-0.5605,0.994,-0.089842,-0.40366
0.70263,-1.5042,-1.043,0.83966,-0.68995,1.4457,-0.012362,-0.62893
0.14859,-0.47651,0.24942,1.5691,1.184,-0.77866,0.48665,-1.0723
-0.56263,0.98765,-0.083428,-0.40242
0.70244,-1.504,-1.0429,0.83967,-0.68979,1.4457,-0.012356,-0.62896
0.14858,-0.47791,0.24969,1.5694,1.1825,-0.77863,0.48664,-1.0718
-0.56408,0.98861,-0.087072,-0.39683
0.70553,-1.5089,-1.0429,0.83926,-0.69319,1.4459,-0.0080503,-0.62892
0.14824,-0.47508,0.24881,1.5691,1.1872,-0.77872,0.48752,-1.0721
-0.56027,1.0015,-0.097104,-0.40379
0.70621,-1.5098,-1.0429,0.83917,-0.69363,1.4459,-0.0073606,-0.62863
0.14908,-0.47559,0.24941,1.5694,1.1868,-0.77869,0.48727,-1.0726
-0.5605,0.9924,-0.090313,-0.40206
0.70772,-1.5122,-1.0429,0.839,-0.69537,1.446,-0.0049342,-0.62866
0.14872,-0.47472,0.24903,1.5693,1.1886,-0.77872,0.48772,-1.0726
-0.55866,1.0006,-0.096946,-0.40353
0.70805,-1.5127,-1.0429,0.83896,-0.69568,1.446,-0.0040691,-0.62865
0.14861,-0.47496,0.24936,1.5696,1.1878,-0.77868,0.48777,-1.0722
-0.56377,1.0039,-0.10398,-0.39562
0.70727,-1.5112,-1.0429,0.83917,-0.69444,1.446,-0.0052634,-0.62828
0.14964,-0.47652,0.25021,1.5699,1.185,-0.77861,0.48749,-1.0717
-0.57,0.99602,-0.10465,-0.38687
0.70973,-1.5149,-1.0429,0.83888,-0.69669,1.4461,-0.0024839,-0.62805
0.14988,-0.47485,0.25028,1.57,1.1881,-0.77866,0.48756,-1.0735
-0.56688,0.99217,-0.096705,-0.39335
0.71143,-1.5177,-1.0429,0.83855,-0.69822,1.4462,-0.00053692,-0.62812
0.1495,-0.47437,0.2504,1.5701,1.1897,-0.77868,0.48753,-1.0748
-0.56368,0.99127,-0.09062,-0.39652
0.71234,-1.5189,-1.0429,0.83829,-0.69871,1.4462,0.00017152,-0.6279
0.14991,-0.47477,0.25075,1.5703,1.1897,-0.77869,0.48742,-1.0756
-0.56204,0.98496,-0.083919,-0.39762
0.71507,-1.5231,-1.0429,0.83804,-0.70161,1.4464,0.0037657,-0.62767
0.15011,-0.47257,0.25023,1.5701,1.1934,-0.77876,0.48801,-1.0762
-0.5562,0.98851,-0.085839,-0.40708
0.71752,-1.5267,-1.0429,0.83771,-0.70364,1.4464,0.006506,-0.62743
0.15056,-0.47031,0.2515,1.5705,1.1959,-0.7787,0.48731,-1.079
-0.56612,0.97826,-0.074052,-0.40013
0.71896,-1.5288,-1.0429,0.83746,-0.70487,1.4466,0.0081234,-0.62726
0.15085,-0.46944,0.25162,1.5706,1.1972,-0.7787,0.4875,-1.0792
-0.56799,0.97974,-0.077456,-0.39913
0.71798,-1.5273,-1.0429,0.83747,-0.7037,1.4466,0.0065418,-0.627
0.15174,-0.47233,0.25155,1.5707,1.1943,-0.77871,0.4878,-1.0774
-0.56245,0.97694,-0.08185,-0.40001
0.71955,-1.5299,-1.0429,0.83718,-0.70553,1.4467,0.0087503,-0.62693
0.15181,-0.47165,0.2512,1.5707,1.1959,-0.77874,0.48826,-1.077
-0.55878,0.98155,-0.087527,-0.40319
0.7187,-1.5287,-1.0428,0.83732,-0.70466,1.4467,0.0076653,-0.62686
0.15233,-0.47422,0.2518,1.571,1.1932,-0.77869,0.48795,-1.0765
-0.5591,0.97538,-0.084662,-0.39721
0.71896,-1.5293,-1.0428,0.8373,-0.70529,1.4467,0.0087275,-0.62706
0.15163,-0.47493,0.25085,1.5708,1.1934,-0.77874,0.48878,-1.075
-0.55304,0.99066,-0.099472,-0.39995
0.72103,-1.5323,-1.0428,0.83705,-0.707,1.4468,0.011524,-0.62697
0.15126,-0.47225,0.25138,1.5711,1.1956,-0.77871,0.48873,-1.0765
-0.56292,0.99354,-0.10283,-0.39387
0.72004,-1.5307,-1.0428,0.83698,-0.70548,1.4469,0.0096749,-0.62674
0.15156,-0.47473,0.25077,1.571,1.193,-0.77877,0.48945,-1.0745
-0.55491,0.99698,-0.11165,-0.39967
0.72297,-1.5352,-1.0428,0.83679,-0.70845,1.4469,0.0134,-0.62664
0.15164,-0.47248,0.25105,1.5711,1.1969,-0.77879,0.48929,-1.0769
-0.55374,0.99295,-0.10133,-0.40374
0.72466,-1.5378,-1.0428,0.83663,-0.71004,1.447,0.015682,-0.62651
0.1517,-0.47135,0.2513,1.5712,1.1985,-0.77879,0.48927,-1.0779
-0.55474,0.99132,-0.098691,-0.40363
0.72433,-1.5374,-1.0428,0.83671,-0.70946,1.447,0.014772,-0.62623
0.1529,-0.47373,0.25236,1.5716,1.1962,-0.77873,0.4886,-1.0784
-0.55432,0.97403,-0.085013,-0.39995
0.72645,-1.5407,-1.0428,0.83642,-0.7116,1.447,0.017617,-0.62629
0.15272,-0.4722,0.25281,1.5718,1.1986,-0.77871,0.4884,-1.0799
-0.5581,0.97462,-0.081823,-0.39616
0.72552,-1.5391,-1.0428,0.83659,-0.7104,1.447,0.016269,-0.62594
0.15381,-0.47458,0.25326,1.572,1.1956,-0.77867,0.48835,-1.0787
-0.55693,0.96697,-0.081784,-0.39361
0.72727,-1.5417,-1.0428,0.83634,-0.71205,1.4471,0.018331,-0.62578
0.15409,-0.4735,0.25368,1.5722,1.1973,-0.77867,0.48819,-1.0801
-0.55817,0.96248,-0.076133,-0.39371
0.73328,-1.551,-1.0428,0.83546,-0.71805,1.4473,0.025931,-0.62581
0.15321,-0.46674,0.2538,1.5722,1.2065,-0.77872,0.48822,-1.0846
-0.56301,0.96778,-0.068737,-0.3985
0.73148,-1.5483,-1.0428,0.83561,-0.71634,1.4473,0.023976,-0.62575
0.15344,-0.46993,0.25319,1.5721,1.2027,-0.77873,0.48896,-1.0813
-0.55902,0.97761,-0.087714,-0.39625
0.73243,-1.5498,-1.0428,0.83538,-0.71742,1.4475,0.025503,-0.62578
0.15302,-0.46953,0.25192,1.5719,1.2041,-0.77882,0.49018,-1.0793
-0.55282,0.99638,-0.10841,-0.40184
0.73217,-1.5495,-1.0428,0.83547,-0.71664,1.4474,0.024554,-0.62549
0.15408,-0.47127,0.25364,1.5725,1.2014,-0.7787,0.48909,-1.0807
-0.56043,0.97538,-0.092538,-0.39158
0.73282,-1.5506,-1.0428,0.83532,-0.71718,1.4475,0.025268,-0.62538
0.15416,-0.47195,0.25318,1.5724,1.2015,-0.77876,0.48957,-1.0801
-0.55197,0.97761,-0.094749,-0.39875
0.73549,-1.5548,-1.0428,0.83511,-0.72019,1.4476,0.029223,-0.62544
0.15353,-0.46933,0.25244,1.5722,1.2057,-0.77883,0.49027,-1.0807
-0.54842,0.99007,-0.10282,-0.40539
0.73433,-1.5533,-1.0428,0.83539,-0.71901,1.4475,0.028123,-0.62549
0.15385,-0.47159,0.25374,1.5727,1.2021,-0.7787,0.48954,-1.0805
-0.55865,0.98272,-0.10208,-0.38894
0.73552,-1.5548,-1.0428,0.8351,-0.71927,1.4476,0.028158,-0.6249
0.15525,-0.47201,0.25462,1.573,1.2022,-0.7787,0.48905,-1.0823
-0.55562,0.96221,-0.082372,-0.39445
0.73753,-1.5578,-1.0427,0.83481,-0.72119,1.4477,0.0308,-0.62476
0.15537,-0.47029,0.25493,1.5731,1.2044,-0.77868,0.48898,-1.0837
-0.56057,0.96254,-0.081226,-0.39076
0.73983,-1.5613,-1.0427,0.83445,-0.72335,1.4478,0.033775,-0.62481
0.15479,-0.46787,0.25494,1.5732,1.2075,-0.77869,0.48922,-1.0848
-0.56551,0.97107,-0.087441,-0.38874
0.74088,-1.5629,-1.0427,0.83425,-0.72429,1.4479,0.034984,-0.62466
0.15492,-0.46771,0.25468,1.5732,1.2082,-0.77873,0.48961,-1.0846
-0.56224,0.97356,-0.091329,-0.39244
0.73901,-1.5601,-1.0427,0.83445,-0.72236,1.4479,0.032379,-0.62441
0.15612,-0.47172,0.25497,1.5734,1.2037,-0.77869,0.48962,-1.0823
-0.5588,0.96616,-0.093703,-0.38906
0.74143,-1.5639,-1.0427,0.83424,-0.72498,1.4479,0.035998,-0.62456
0.15539,-0.46934,0.25509,1.5736,1.2072,-0.7787,0.4896,-1.0842
-0.56295,0.97275,-0.093599,-0.38642
0.74365,-1.5671,-1.0427,0.83397,-0.72674,1.448,0.03836,-0.62437
0.15567,-0.46784,0.25534,1.5736,1.2097,-0.77871,0.48955,-1.0857
-0.56274,0.97006,-0.087561,-0.38872
0.74436,-1.5682,-1.0427,0.83379,-0.72721,1.4481,0.038871,-0.62408
0.15616,-0.46833,0.2551,1.5736,1.2097,-0.77876,0.48996,-1.0853
-0.55546,0.96765,-0.08788,-0.39636
0.74653,-1.5717,-1.0427,0.83356,-0.72924,1.4481,0.041732,-0.6241
0.15592,-0.46599,0.25597,1.5739,1.2122,-0.7787,0.48955,-1.0874
-0.5665,0.96738,-0.085741,-0.38737
0.74709,-1.5733,-1.0427,0.83375,-0.73043,1.4481,0.043747,-0.62446
0.15494,-0.46569,0.25626,1.5741,1.2124,-0.77864,0.48951,-1.0875
-0.57299,0.97651,-0.094153,-0.37743
0.74939,-1.5767,-1.0427,0.83343,-0.73264,1.4482,0.046546,-0.62428
0.155,-0.46385,0.25614,1.5742,1.215,-0.77868,0.48983,-1.0883
-0.57222,0.97877,-0.095891,-0.38094
0.7508,-1.5789,-1.0427,0.83331,-0.73357,1.4483,0.047532,-0.62391
0.15584,-0.46348,0.25703,1.5745,1.2158,-0.77865,0.4894,-1.09
-0.5746,0.96608,-0.084037,-0.38083
0.7505,-1.578,-1.0427,0.83308,-0.73239,1.4484,0.045793,-0.62336
0.15749,-0.46553,0.25747,1.5747,1.2139,-0.77865,0.48935,-1.0894
-0.57145,0.95404,-0.078614,-0.38254
0.74994,-1.5771,-1.0426,0.83322,-0.73189,1.4484,0.045235,-0.62325
0.15803,-0.4675,0.2573,1.5747,1.2121,-0.77865,0.48962,-1.0879
-0.56735,0.95533,-0.084192,-0.38243
0.74922,-1.5759,-1.0426,0.83321,-0.73104,1.4484,0.044393,-0.62304
0.15842,-0.46941,0.25669,1.5746,1.21,-0.77869,0.49026,-1.0859
-0.5589,0.95879,-0.092461,-0.38779
0.75369,-1.583,-1.0426,0.83281,-0.73555,1.4485,0.050455,-0.62336
0.157,-0.46379,0.25752,1.5749,1.2167,-0.77865,0.48982,-1.0901
-0.57554,0.96687,-0.090914,-0.37843
0.75273,-1.5815,-1.0426,0.83287,-0.73429,1.4485,0.048994,-0.62308
0.15784,-0.46616,0.25761,1.575,1.2141,-0.77864,0.48996,-1.0889
-0.57239,0.96264,-0.092164,-0.37802
0.75491,-1.5847,-1.0426,0.83263,-0.73622,1.4486,0.051129,-0.62269
0.15863,-0.46521,0.25793,1.5751,1.2163,-0.77867,0.48983,-1.0906
-0.56697,0.95159,-0.078644,-0.38566
0.75304,-1.5819,-1.0426,0.83285,-0.73433,1.4486,0.048702,-0.62258
0.15944,-0.46898,0.25756,1.5751,1.2124,-0.77867,0.4903,-1.0875
-0.55982,0.95386,-0.089264,-0.38562
0.7554,-1.5854,-1.0426,0.83246,-0.73676,1.4487,0.05211,-0.62267
0.15882,-0.46628,0.25728,1.575,1.2158,-0.77869,0.49066,-1.0882
-0.56462,0.96632,-0.099034,-0.38305
0.756,-1.5866,-1.0426,0.83232,-0.7371,1.4487,0.05232,-0.62244
0.15916,-0.46724,0.25738,1.5751,1.2155,-0.77872,0.4907,-1.0888
-0.55782,0.95894,-0.091184,-0.38973
0.75787,-1.5895,-1.0426,0.83222,-0.73917,1.4488,0.055054,-0.62246
0.15904,-0.46605,0.25719,1.5751,1.218,-0.77874,0.49088,-1.0895
-0.55643,0.96353,-0.092061,-0.39104
0.75902,-1.5915,-1.0426,0.83214,-0.7403,1.4488,0.056463,-0.62246
0.15902,-0.46572,0.25762,1.5753,1.2189,-0.77872,0.49071,-1.0904
-0.55881,0.96228,-0.089424,-0.38844
0.75918,-1.5916,-1.0426,0.83197,-0.73974,1.4488,0.055952,-0.62218
0.15956,-0.46637,0.25831,1.5756,1.2177,-0.77869,0.49049,-1.0909
-0.56279,0.95511,-0.08664,-0.38491
0.76131,-1.5949,-1.0426,0.83168,-0.7417,1.4489,0.058302,-0.62202
0.15964,-0.46497,0.25787,1.5755,1.2207,-0.77876,0.49097,-1.0915
-0.55639,0.95878,-0.087056,-0.39379
0.76352,-1.5983,-1.0426,0.83147,-0.7439,1.449,0.061051,-0.62189
0.15991,-0.46319,0.25819,1.5756,1.2234,-0.77875,0.4909,-1.0928
-0.55941,0.95746,-0.08419,-0.3928
0.76103,-1.5948,-1.0425,0.83169,-0.74143,1.449,0.058172,-0.62182
0.16058,-0.46717,0.25868,1.5759,1.2178,-0.77867,0.49084,-1.0902
-0.5611,0.95389,-0.092622,-0.38305
0.76326,-1.5985,-1.0425,0.8313,-0.74379,1.4491,0.061594,-0.6221
0.15943,-0.46468,0.25839,1.5759,1.2209,-0.77868,0.49121,-1.0909
-0.5663,0.96902,-0.10395,-0.379
0.7632,-1.5983,-1.0425,0.83137,-0.74337,1.4491,0.06105,-0.62178
0.16019,-0.46588,0.25882,1.5761,1.2196,-0.77867,0.49111,-1.0909
-0.56523,0.9611,-0.09952,-0.37954
0.76399,-1.5995,-1.0425,0.83135,-0.74361,1.4491,0.061143,-0.62141
0.16088,-0.46668,0.25895,1.5761,1.2198,-0.77871,0.4911,-1.092
-0.55678,0.95043,-0.087495,-0.38935
0.7676,-1.6049,-1.0425,0.8309,-0.74702,1.4492,0.065499,-0.62129
0.16075,-0.46294,0.25937,1.5763,1.2246,-0.77871,0.49098,-1.0946
-0.56254,0.95042,-0.082768,-0.38903
0.7677,-1.6052,-1.0425,0.83076,-0.74672,1.4493,0.065099,-0.62107
0.16159,-0.46415,0.25991,1.5765,1.2236,-0.77868,0.49078,-1.0946
-0.56267,0.94303,-0.078637,-0.38652
0.76869,-1.6069,-1.0425,0.83079,-0.74822,1.4493,0.067154,-0.62124
0.16123,-0.46361,0.2597,1.5765,1.2247,-0.77867,0.49104,-1.0942
-0.56439,0.95246,-0.088248,-0.38302
0.77113,-1.6108,-1.0425,0.83037,-0.75084,1.4495,0.070347,-0.62126
0.16088,-0.4614,0.25888,1.5763,1.2285,-0.77875,0.49179,-1.094
-0.5604,0.96515,-0.098786,-0.38916
0.77163,-1.6117,-1.0425,0.83053,-0.75103,1.4494,0.07074,-0.6211
0.16144,-0.46206,0.26004,1.5767,1.2278,-0.77867,0.49107,-1.0956
-0.56565,0.95304,-0.086688,-0.38269
0.76874,-1.6076,-1.0425,0.8307,-0.74799,1.4494,0.066954,-0.62108
0.16194,-0.46672,0.26005,1.5769,1.2221,-0.77864,0.49129,-1.0925
-0.56183,0.95249,-0.095881,-0.37856
0.77081,-1.6107,-1.0425,0.83056,-0.74975,1.4494,0.069366,-0.62084
0.16214,-0.4649,0.26065,1.577,1.2242,-0.77863,0.49106,-1.0946
-0.56541,0.94656,-0.088548,-0.37876
0.77162,-1.6116,-1.0425,0.83033,-0.75009,1.4495,0.069854,-0.62054
0.16273,-0.46478,0.2607,1.5771,1.2245,-0.77864,0.49126,-1.0945
-0.56529,0.94533,-0.090332,-0.37974
0.77482,-1.6168,-1.0425,0.8301,-0.75345,1.4496,0.074025,-0.62059
0.16229,-0.46208,0.26082,1.5771,1.2291,-0.77866,0.49118,-1.0971
-0.56591,0.94748,-0.083839,-0.3822
0.77827,-1.622,-1.0425,0.82948,-0.75643,1.4498,0.07731,-0.6202
0.16299,-0.45969,0.26106,1.5772,1.2334,-0.77871,0.49114,-1.0995
-0.56188,0.93857,-0.071105,-0.39092
0.77824,-1.6225,-1.0424,0.82956,-0.75693,1.4498,0.078271,-0.62046
0.1622,-0.45985,0.26049,1.5771,1.233,-0.77871,0.49174,-1.0978
-0.5637,0.95476,-0.091015,-0.38682
0.77854,-1.6228,-1.0424,0.82951,-0.75693,1.4498,0.078383,-0.62015
0.16299,-0.46031,0.26091,1.5773,1.2323,-0.77869,0.49168,-1.0978
-0.56503,0.9487,-0.089103,-0.38513
0.77714,-1.6207,-1.0424,0.82975,-0.75527,1.4498,0.076313,-0.61986
0.16437,-0.46346,0.26207,1.5777,1.2286,-0.77859,0.49104,-1.0974
-0.56784,0.93298,-0.080146,-0.37705
0.77682,-1.6207,-1.0424,0.82986,-0.75511,1.4498,0.075999,-0.61993
0.16439,-0.46524,0.26207,1.5779,1.2272,-0.77859,0.49112,-1.0966
-0.56484,0.93392,-0.082448,-0.37604
0.77892,-1.624,-1.0424,0.82955,-0.75719,1.4499,0.078817,-0.62018
0.16345,-0.46304,0.26145,1.5777,1.2307,-0.77863,0.49168,-1.0969
-0.56519,0.95051,-0.094005,-0.37741
0.78165,-1.6284,-1.0424,0.82923,-0.75987,1.45,0.082357,-0.62027
0.16274,-0.46047,0.26141,1.5778,1.2343,-0.77866,0.49184,-1.0986
-0.56768,0.95748,-0.096087,-0.37789
0.78114,-1.6275,-1.0424,0.82943,-0.75919,1.4499,0.081466,-0.61993
0.1639,-0.46246,0.2615,1.5778,1.2326,-0.77866,0.49196,-1.0975
-0.56142,0.95067,-0.093756,-0.38102
0.78155,-1.6282,-1.0424,0.82934,-0.75944,1.45,0.081967,-0.61983
0.16393,-0.46297,0.26113,1.5778,1.2325,-0.7787,0.49232,-1.0971
-0.55586,0.95361,-0.096187,-0.38545
0.78103,-1.6275,-1.0424,0.82939,-0.75843,1.45,0.080642,-0.61953
0.16498,-0.46476,0.26231,1.5782,1.23,-0.77861,0.49177,-1.0974
-0.56174,0.93977,-0.089723,-0.37792
0.78447,-1.6328,-1.0424,0.82896,-0.76177,1.4501,0.084991,-0.6195
0.16437,-0.46081,0.26215,1.5782,1.235,-0.77865,0.49207,-1.0993
-0.56626,0.94804,-0.094021,-0.3798
0.78424,-1.6326,-1.0424,0.82907,-0.76124,1.4501,0.084226,-0.61934
0.16509,-0.46245,0.26302,1.5785,1.2335,-0.77859,0.49158,-1.0999
-0.56818,0.9378,-0.0852,-0.37542
0.78637,-1.636,-1.0424,0.82882,-0.76305,1.4501,0.086551,-0.61918
0.16519,-0.46062,0.26416,1.5789,1.2357,-0.77853,0.49094,-1.1028
-0.57826,0.92949,-0.074482,-0.36915
0.78694,-1.6369,-1.0423,0.82855,-0.76357,1.4502,0.087147,-0.61907
0.16505,-0.46059,0.26283,1.5785,1.2363,-0.77864,0.49211,-1.1008
-0.56738,0.94237,-0.091355,-0.38069
0.78824,-1.6388,-1.0423,0.82845,-0.76469,1.4503,0.088452,-0.61901
0.16528,-0.46032,0.26284,1.5786,1.2377,-0.77865,0.49213,-1.1014
-0.56609,0.94302,-0.089304,-0.38158
0.79055,-1.6423,-1.0423,0.82811,-0.76656,1.4504,0.090497,-0.61861
0.16619,-0.45925,0.26347,1.5787,1.2401,-0.77865,0.49182,-1.1035
-0.56447,0.93036,-0.074267,-0.38531
0.79015,-1.6424,-1.0423,0.82836,-0.76681,1.4503,0.090979,-0.61898
0.16575,-0.46042,0.26339,1.5789,1.239,-0.77861,0.492,-1.1018
-0.56636,0.94107,-0.087439,-0.37792
0.78841,-1.6399,-1.0423,0.82858,-0.76492,1.4503,0.088906,-0.61886
0.16635,-0.4632,0.2637,1.5791,1.2353,-0.77857,0.49203,-1.1
-0.56696,0.93883,-0.092963,-0.37249
0.79149,-1.6444,-1.0423,0.8282,-0.76757,1.4504,0.092186,-0.61858
0.16653,-0.46041,0.26374,1.579,1.2396,-0.77861,0.49211,-1.1024
-0.56577,0.93671,-0.085449,-0.37908
0.79291,-1.647,-1.0423,0.82816,-0.76925,1.4504,0.09437,-0.6187
0.16607,-0.45967,0.26355,1.579,1.2412,-0.77863,0.4923,-1.1028
-0.56453,0.94297,-0.088606,-0.37953
0.79227,-1.6464,-1.0423,0.82818,-0.76867,1.4504,0.093727,-0.61874
0.16617,-0.46163,0.2634,1.5791,1.2393,-0.77863,0.49254,-1.1015
-0.5593,0.94489,-0.09292,-0.3801
0.7941,-1.6492,-1.0423,0.82807,-0.76999,1.4505,0.095149,-0.6184
0.16699,-0.461,0.26451,1.5794,1.2407,-0.77858,0.49191,-1.1039
-0.56398,0.93052,-0.077806,-0.37778
0.79466,-1.6501,-1.0423,0.82792,-0.77041,1.4505,0.095973,-0.61828
0.1671,-0.46042,0.2644,1.5795,1.2409,-0.77858,0.49231,-1.1031
-0.56713,0.93665,-0.08948,-0.37567
0.79309,-1.6477,-1.0423,0.82812,-0.76862,1.4505,0.093754,-0.61817
0.16782,-0.46311,0.26484,1.5797,1.2376,-0.77853,0.49224,-1.1015
-0.56901,0.93338,-0.093748,-0.36993
0.79425,-1.6497,-1.0422,0.8281,-0.76976,1.4505,0.095041,-0.61797
0.16843,-0.46309,0.26554,1.5799,1.2384,-0.7785,0.49183,-1.103
-0.56934,0.92355,-0.082118,-0.369
0.7941,-1.6494,-1.0422,0.82816,-0.7696,1.4505,0.095054,-0.61806
0.16816,-0.46394,0.26507,1.5799,1.2378,-0.77853,0.49222,-1.102
-0.56518,0.93135,-0.089705,-0.37112
0.79524,-1.6514,-1.0422,0.82798,-0.77056,1.4506,0.096423,-0.61816
0.16787,-0.46306,0.26526,1.58,1.239,-0.7785,0.49228,-1.1023
-0.57179,0.93813,-0.097003,-0.36507
0.79988,-1.6584,-1.0422,0.82737,-0.77474,1.4507,0.10177,-0.618
0.16712,-0.45778,0.26498,1.5799,1.2457,-0.77858,0.49269,-1.1053
-0.57305,0.94523,-0.097483,-0.37381
0.79979,-1.6585,-1.0422,0.82742,-0.77446,1.4507,0.10129,-0.61778
0.16777,-0.45916,0.26502,1.5799,1.2448,-0.77859,0.49281,-1.1049
-0.56873,0.94098,-0.095746,-0.37656
0.80092,-1.6602,-1.0422,0.82736,-0.77525,1.4508,0.10222,-0.61745
0.16856,-0.45911,0.26579,1.5802,1.2452,-0.77855,0.49243,-1.1063
-0.57055,0.9297,-0.085015,-0.37534
0.80314,-1.664,-1.0422,0.82709,-0.77695,1.4508,0.10392,-0.61725
0.16859,-0.45828,0.26579,1.5802,1.2481,-0.77862,0.49245,-1.1088
-0.5629,0.92383,-0.072035,-0.38634
0.80382,-1.6653,-1.0422,0.82689,-0.77763,1.4509,0.10458,-0.61729
0.16861,-0.4587,0.26543,1.5801,1.2488,-0.77865,0.49282,-1.1081
-0.55824,0.92942,-0.077471,-0.38913
0.80406,-1.6657,-1.0422,0.82696,-0.77766,1.4509,0.10448,-0.61696
0.16989,-0.45963,0.26653,1.5805,1.2479,-0.77857,0.49228,-1.1087
-0.5633,0.916,-0.068909,-0.38282
0.80355,-1.665,-1.0422,0.82694,-0.77743,1.451,0.10449,-0.61706
0.16985,-0.46021,0.26592,1.5804,1.2467,-0.77857,0.49294,-1.1059
-0.56415,0.92949,-0.090257,-0.37909
0.80494,-1.6672,-1.0421,0.82677,-0.77882,1.451,0.10646,-0.61703
0.16977,-0.45903,0.26592,1.5805,1.2482,-0.77857,0.49309,-1.1062
-0.56693,0.93416,-0.095078,-0.37701
0.80379,-1.6659,-1.0421,0.82706,-0.7777,1.4509,0.10527,-0.61713
0.16989,-0.46114,0.26674,1.5808,1.2452,-0.77848,0.49269,-1.1056
-0.57303,0.93079,-0.095966,-0.36642
0.80657,-1.6701,-1.0421,0.82684,-0.78042,1.451,0.10877,-0.61702
0.17003,-0.45852,0.26728,1.581,1.2488,-0.77846,0.49244,-1.1077
-0.58014,0.9301,-0.091614,-0.36253
0.80594,-1.6692,-1.0421,0.82688,-0.77956,1.451,0.10741,-0.61679
0.1704,-0.46057,0.26626,1.5807,1.2476,-0.77856,0.49325,-1.106
-0.56327,0.93187,-0.095433,-0.37766
0.80739,-1.6714,-1.0421,0.82661,-0.78075,1.4511,0.10882,-0.61662
0.17074,-0.45991,0.26607,1.5807,1.2493,-0.77859,0.49355,-1.1062
-0.55916,0.93258,-0.095575,-0.38235
0.80648,-1.6702,-1.0421,0.82687,-0.77973,1.4511,0.10776,-0.61659
0.17133,-0.46177,0.26719,1.5811,1.2466,-0.77848,0.49294,-1.106
-0.56843,0.9255,-0.093594,-0.36892
0.80904,-1.6746,-1.0421,0.82656,-0.78227,1.4511,0.11118,-0.61686
0.17011,-0.45891,0.26734,1.5812,1.2501,-0.77847,0.49291,-1.1081
-0.57738,0.9363,-0.09837,-0.36408
0.81033,-1.6768,-1.0421,0.82653,-0.78299,1.4511,0.11185,-0.6165
0.17072,-0.45906,0.26798,1.5814,1.2509,-0.77847,0.49257,-1.1103
-0.57446,0.92291,-0.082736,-0.36887
0.80897,-1.6749,-1.0421,0.82674,-0.78177,1.4511,0.11046,-0.61646
0.17115,-0.46137,0.26802,1.5815,1.2481,-0.77845,0.49271,-1.1085
-0.57359,0.92339,-0.089167,-0.36509
0.80929,-1.6754,-1.0421,0.82668,-0.78158,1.4511,0.10999,-0.61605
0.17218,-0.46234,0.2686,1.5817,1.2475,-0.77843,0.49251,-1.1092
-0.57216,0.91116,-0.079894,-0.36718
0.81183,-1.6797,-1.0421,0.82649,-0.78363,1.4511,0.11237,-0.61599
0.17211,-0.461,0.26974,1.5821,1.2504,-0.77839,0.49171,-1.1131
-0.5776,0.90099,-0.060608,-0.3643
0.8146,-1.6838,-1.0421,0.82606,-0.78654,1.4512,0.11619,-0.61602
0.17143,-0.45756,0.26861,1.5817,1.2547,-0.77848,0.49268,-1.1128
-0.57409,0.91888,-0.077867,-0.37242
0.81426,-1.6835,-1.0421,0.82601,-0.78608,1.4513,0.11562,-0.61603
0.17167,-0.4586,0.26874,1.5819,1.2534,-0.77845,0.49281,-1.1116
-0.57666,0.92174,-0.086085,-0.36761
0.81696,-1.6877,-1.042,0.82577,-0.78909,1.4514,0.11944,-0.61604
0.17137,-0.45601,0.26807,1.5817,1.2574,-0.77851,0.4934,-1.1118
-0.57338,0.93288,-0.094551,-0.37308
0.81743,-1.6889,-1.042,0.82578,-0.78946,1.4514,0.11988,-0.61602
0.17159,-0.45652,0.26872,1.582,1.257,-0.77846,0.49309,-1.1123
-0.57786,0.92921,-0.091893,-0.36704
0.81726,-1.6889,-1.042,0.82601,-0.78958,1.4514,0.12068,-0.61628
0.17102,-0.45652,0.2688,1.5821,1.2561,-0.77841,0.49322,-1.1112
-0.58497,0.94054,-0.10585,-0.35733
0.81769,-1.6896,-1.042,0.82622,-0.78949,1.4513,0.12006,-0.61573
0.1724,-0.45813,0.26936,1.5822,1.2557,-0.77842,0.4929,-1.1127
-0.5751,0.9206,-0.085785,-0.36714
0.81732,-1.6893,-1.042,0.82629,-0.789,1.4513,0.11949,-0.61563
0.17262,-0.4592,0.2694,1.5823,1.2545,-0.77842,0.49305,-1.1121
-0.57479,0.92072,-0.089554,-0.36686
0.81643,-1.6879,-1.042,0.82627,-0.78779,1.4513,0.11762,-0.61534
0.17375,-0.46165,0.26929,1.5823,1.2524,-0.77843,0.49334,-1.1103
-0.56782,0.91571,-0.091109,-0.37073
0.82017,-1.6939,-1.042,0.82566,-0.79124,1.4515,0.12165,-0.61536
0.1732,-0.45836,0.26933,1.5824,1.2579,-0.77847,0.49334,-1.1133
-0.56988,0.91953,-0.085704,-0.37365
0.81961,-1.6929,-1.042,0.82566,-0.79039,1.4516,0.12009,-0.6149
0.17473,-0.46059,0.26915,1.5823,1.2564,-0.77851,0.4937,-1.1117
-0.55865,0.91051,-0.083613,-0.38236
0.82276,-1.6978,-1.0419,0.82508,-0.79378,1.4517,0.12483,-0.61536
0.17312,-0.45615,0.26828,1.5821,1.2615,-0.77855,0.49438,-1.1119
-0.56539,0.93734,-0.10525,-0.37941
0.82304,-1.6987,-1.0419,0.82523,-0.79364,1.4517,0.12474,-0.61521
0.17358,-0.45704,0.26978,1.5826,1.2604,-0.77844,0.49344,-1.1141
-0.57641,0.92396,-0.091671,-0.3677
0.82493,-1.7015,-1.0419,0.82495,-0.79516,1.4518,0.12645,-0.61492
0.17414,-0.45585,0.26966,1.5826,1.2629,-0.77848,0.49371,-1.1148
-0.57287,0.92231,-0.089884,-0.37398
0.82425,-1.7011,-1.0419,0.8252,-0.7943,1.4517,0.12522,-0.61482
0.17462,-0.45804,0.27044,1.5829,1.2608,-0.77842,0.49329,-1.1152
-0.57477,0.91328,-0.083403,-0.36954
0.82296,-1.6998,-1.0419,0.82562,-0.79311,1.4515,0.12373,-0.6149
0.1747,-0.4609,0.27081,1.5831,1.2579,-0.77839,0.49309,-1.1147
-0.57144,0.90918,-0.079963,-0.3676
0.82303,-1.7002,-1.0419,0.82571,-0.79312,1.4515,0.12359,-0.6148
0.17505,-0.46235,0.27038,1.583,1.2576,-0.77844,0.49344,-1.1141
-0.5606,0.90851,-0.078644,-0.37566
0.82461,-1.7026,-1.0419,0.8254,-0.79444,1.4516,0.12534,-0.61475
0.1747,-0.46082,0.26981,1.5829,1.2598,-0.77849,0.49401,-1.1141
-0.55807,0.91742,-0.08721,-0.38122
0.82573,-1.7045,-1.0419,0.82535,-0.79561,1.4516,0.12683,-0.61473
0.17487,-0.46011,0.27033,1.5831,1.2608,-0.77845,0.49381,-1.1147
-0.56394,0.91691,-0.087575,-0.37574
0.82782,-1.7079,-1.0419,0.82534,-0.79793,1.4517,0.12991,-0.61469
0.17499,-0.458,0.27128,1.5834,1.2631,-0.77837,0.49332,-1.1166
-0.5768,0.91503,-0.08533,-0.3651
0.82748,-1.7075,-1.0419,0.82541,-0.79723,1.4516,0.12903,-0.61455
0.17539,-0.45926,0.27143,1.5835,1.2618,-0.77836,0.4934,-1.1161
-0.57457,0.9128,-0.085639,-0.36587
0.82875,-1.7096,-1.0419,0.82515,-0.79791,1.4517,0.12976,-0.61436
0.17565,-0.45883,0.27186,1.5836,1.2627,-0.77835,0.49329,-1.1173
-0.57674,0.90863,-0.082001,-0.36578
0.82887,-1.7099,-1.0419,0.82512,-0.79776,1.4518,0.12965,-0.61426
0.1758,-0.45919,0.27153,1.5836,1.2626,-0.77838,0.4937,-1.1165
-0.5743,0.91321,-0.088965,-0.36847
0.8284,-1.7095,-1.0418,0.82521,-0.79707,1.4517,0.12897,-0.61423
0.17603,-0.46037,0.27225,1.5839,1.2609,-0.77831,0.49339,-1.1165
-0.58088,0.90952,-0.088751,-0.36024
0.8314,-1.7144,-1.0418,0.82491,-0.80007,1.4519,0.13235,-0.61406
0.17615,-0.45809,0.27228,1.5839,1.2651,-0.77835,0.49345,-1.1186
-0.57926,0.90794,-0.082816,-0.36554
0.83212,-1.7157,-1.0418,0.82501,-0.80095,1.4518,0.13369,-0.61427
0.17568,-0.45761,0.27207,1.5839,1.2659,-0.77835,0.49368,-1.1181
-0.57898,0.91719,-0.090505,-0.36467
0.83128,-1.7147,-1.0418,0.82502,-0.79991,1.4518,0.13214,-0.6142
0.17603,-0.45996,0.27158,1.5838,1.2641,-0.77839,0.49413,-1.1165
-0.56901,0.9188,-0.094907,-0.37073
0.8337,-1.7184,-1.0418,0.82485,-0.80184,1.4519,0.13431,-0.61381
0.17679,-0.4584,0.27285,1.5841,1.2665,-0.77834,0.4934,-1.1198
-0.57652,0.9038,-0.077628,-0.36731
0.83315,-1.7177,-1.0418,0.82503,-0.80122,1.4518,0.13349,-0.61354
0.17774,-0.46015,0.27314,1.5843,1.2648,-0.77832,0.49341,-1.1191
-0.57314,0.89645,-0.075002,-0.36795
0.83457,-1.7205,-1.0418,0.82473,-0.80233,1.4519,0.13503,-0.61381
0.17677,-0.45875,0.27361,1.5845,1.2664,-0.77827,0.49317,-1.1207
-0.58493,0.90403,-0.0793,-0.35863
0.83815,-1.7261,-1.0418,0.82441,-0.80573,1.452,0.13889,-0.61376
0.1766,-0.45593,0.27358,1.5845,1.2715,-0.77831,0.49322,-1.1231
-0.58356,0.90616,-0.073958,-0.36413
0.83731,-1.7248,-1.0418,0.82457,-0.80525,1.452,0.13806,-0.61353
0.17773,-0.458,0.27301,1.5844,1.2697,-0.77835,0.49383,-1.1202
-0.57186,0.90588,-0.081614,-0.37075
0.83745,-1.7256,-1.0418,0.82459,-0.80521,1.452,0.13811,-0.61371
0.17715,-0.45842,0.27296,1.5844,1.2695,-0.77835,0.49395,-1.1201
-0.57222,0.91188,-0.086744,-0.3698
0.83695,-1.7247,-1.0417,0.82463,-0.80446,1.452,0.13722,-0.61337
0.17827,-0.4596,0.27347,1.5846,1.2677,-0.77831,0.49391,-1.1193
-0.57493,0.90468,-0.087827,-0.36621
0.83887,-1.7276,-1.0417,0.82435,-0.80605,1.4521,0.13904,-0.61333
0.17824,-0.45808,0.27302,1.5845,1.2705,-0.77836,0.49437,-1.1193
-0.57141,0.91145,-0.093538,-0.37207
0.8392,-1.7286,-1.0417,0.8244,-0.80608,1.4521,0.13922,-0.61328
0.17825,-0.45841,0.27402,1.5848,1.27,-0.77828,0.49381,-1.121
-0.58023,0.90525,-0.087046,-0.36376
0.84006,-1.7301,-1.0417,0.82431,-0.80696,1.4521,0.14021,-0.61318
0.17848,-0.45827,0.27335,1.5846,1.2711,-0.77835,0.49439,-1.1201
-0.57166,0.91017,-0.092401,-0.37179
0.84029,-1.7308,-1.0417,0.82448,-0.80689,1.4521,0.13983,-0.61288
0.17922,-0.45933,0.27433,1.5849,1.2706,-0.7783,0.49389,-1.1217
-0.57351,0.89631,-0.079208,-0.37047
0.84054,-1.7316,-1.0417,0.82438,-0.80697,1.4521,0.13974,-0.61297
0.1792,-0.4603,0.27467,1.5852,1.2702,-0.77827,0.49368,-1.1222
-0.57603,0.89608,-0.077694,-0.3656
0.84181,-1.7337,-1.0417,0.82437,-0.80847,1.4521,0.1418,-0.61307
0.17893,-0.45915,0.27447,1.5852,1.2717,-0.77827,0.49392,-1.122
-0.57688,0.90367,-0.08454,-0.36466
0.8421,-1.7347,-1.0417,0.82459,-0.80884,1.452,0.1423,-0.61302
0.17927,-0.45981,0.27561,1.5856,1.271,-0.77818,0.49327,-1.1232
-0.58507,0.89532,-0.077062,-0.35486
0.84434,-1.7383,-1.0417,0.82431,-0.8108,1.4521,0.14468,-0.61292
0.17911,-0.45795,0.27545,1.5855,1.2739,-0.77822,0.49352,-1.1243
-0.58441,0.899,-0.078482,-0.35898
0.84456,-1.7385,-1.0417,0.8242,-0.81044,1.4522,0.14411,-0.61255
0.17997,-0.45835,0.27586,1.5856,1.2734,-0.7782,0.49353,-1.1244
-0.58638,0.89236,-0.077622,-0.35887
0.84485,-1.7391,-1.0416,0.82423,-0.81094,1.4522,0.14488,-0.61273
